{"layers":[{"neurons":[{"bias":-0.11266509312416301,"weights":[-0.08493012081210811,-0.09255478787235916,0.09833942051045597,-0.2977520595304668,0.4293220047062884,-0.2143754722395291,-0.2858559691036741,0.09754439513199031,-0.04876597481779754,-0.004425515653565526,-0.38173727691173553,0.4572468147768329,0.18654284051929912,-0.15366020783161125,-0.21213551238179207,0.25337049434892833,0.47825017602493364,0.10718969752391179,0.045498655177652836,-0.37579326587729156,-0.004413327279811104,-0.16744688479229808,0.32032196115081507,0.3883685143664479,-0.19599365280009806,0.20701935018102327,-0.15208826920328042,-0.0994010039139539,-0.033386606723070145,-0.12334015383385122,-0.007176719062651197,-0.16093513990441957,-0.09372162081611653,-0.1616696355243524,0.15195258388606211,0.12720484351123773,0.04087794222152166,-0.014465683299396764,-0.2893282124223529,-0.2588550498714336,-0.14470554223046334,-0.23084692594966827,-0.11357603864525256,0.2788207459248707,0.24145887668149285,-0.15891091424984988,-0.24353779142688947,0.4350158035962131,0.29771571487518095,-0.4807614610681643,-0.010629858039170369,0.03702051922058066,0.28146749665029347,0.5336905975515643,0.17141163613026342,-0.27077473630197346,-0.28877526374223333,0.08842177797729771,-0.06546359035807352,0.10618237017964323,-0.0021344672484575355,-0.1752031996726225,0.09015185372152662,0.2865695795022925,0.3624316716253054,0.23641339368448577,0.139749405902283,0.13069114602850046,0.22737078014443635,-0.3491625340298186,-0.08281070665767568,-0.19740955664833135,0.7579701794169297,0.15049262368897198,-0.034689191913906986,-0.0035329801730362843,0.10982343599055822,-0.26544698782608095,-0.3155727351663322,-0.24540926181963474,-0.21614615168641443,-0.17465713627946874,0.0008198524980495373,-0.17714727018028498,-0.22602896586370966,0.13691748507941762,-0.08656395832076669,-0.5662300100860497,0.11684982810672971,0.1266620870115488,0.3415638913815536,0.24479757258727872,0.0062172419871275204,-0.012374509422824803,-0.13798600416496412,-0.2675816287947926,0.08252695831224548,0.2652663776071331,0.35464395578335606,-0.034655153784242804,-0.16447002903979516,-0.16536555391800184,0.12004204549083797,0.16235321897578037,-0.22928941464786035,0.04687934688351539,-0.14822233795752132,-0.07003632218425503,-0.16131106285760993,0.5822967988594124,-0.29294480895623565,0.3506349088468899,-0.10945229682450493,-0.16660913359373808,-0.24614282247299948,0.5341543547486041,-0.13926194613227447,0.1695781940473837,0.14579780824413713,0.1719301239175063,0.14005712957787836,0.3494036670672942,0.3796725934147363,-0.12571956316233038,0.022366538560635935,-0.3475282706616899,-0.34020778618557274,-0.017950757957728554,0.11299771753569268,-0.26771623942868616,-0.16937181684255562,0.22327410059889008,-0.4658273724953583,0.23549108828306217,0.24363447396146284,0.3755278259754475,0.39362030765927997,-0.37123167619789854,-0.08924572224107881,0.034226190842067204,-0.18192009270812073,0.09240723898013432,0.2599203603213528,0.15713485710756867,-0.19857262747115176,-0.032236714282072074,-0.16269698334107732,0.3821905432849448,0.24330207071014603,0.4888492994187936,0.2555613531676364,-0.44581977551567076,0.41016658428500724,0.02105689897385668,-0.23030655684912152,0.12735372831609015,0.02537226187907227,0.6134129944548381,0.18834718347190862,-0.24968146098247254,-0.06273441222775639,0.05590222191840851,0.3909188803301407,0.09890232678441285,-0.16406311702104423,-0.31411445629097384,0.2447601134575628,-0.03045810666057453,0.08655516081489623,0.26197420549578965,0.15151945403156405,-0.23045461873779505,-0.34258247596077357,-0.026413998407958796,-0.0767406842722395,-0.3244907516253846,0.5341647241985421,0.19582920781702765,0.18289935537294807,-0.4044500958511826,-0.09621561242945831,-0.010883620118178271,-0.1673045401871673,0.3331602305568548,-0.5603333337672352,-0.15989557295368806,0.3313900977154528,-0.14604933517500981,0.1272125979157871,0.21535654293834974,0.24622735641727034,0.43865783557728105,0.21000115578208092,-0.25810582797857484,0.08845791810401167,0.31123074325702516,-0.1338985528550841,0.4110614546040445,0.2308697696628766,-0.17852879250836523,0.2212617162128943,-0.12783968618589345,-0.2581019698921553,-0.27151845617235676,-0.0585496152315361,0.08229271041069507,0.07521609744024166,-0.17741345979050327,-0.4425683515283101,-1.2865464761773842,-0.034132767031163115,-0.2597798573983068,-0.5047041405628593,-0.41084661790215676,-0.5517899995795847,-0.1758693207040522,0.1614137290234519,0.10508383394970475,-0.3350100514763012,0.3383327932361736,-0.06823333338073846,-0.08477307334348191,0.3623694735908186,-0.014822743630145435,0.08602127036806072,-0.1920050695385291,-0.057339505873160425,0.38830120540671886,-0.03570781197027218,-0.4431034588480399,-0.18159608030815616,-0.3360464673184816,-0.49034544699055305,-0.13645779426023247,0.4666652038269442,-0.041794623472153444,-0.7664961309186129,-0.07267196982695806,-0.004282853361500355,0.4444373080487395,0.5565602794046939,-0.11045222695484434,0.3440535673285457,-0.047740787174987066,0.2903161751351304,-0.6132436164266684,-0.2251908451543242,-0.3186263177156221,-0.13833814302456174,-0.2335398152065483,0.3936561186834377,0.19496446292334488,0.007890725820472056,0.09634551098430764,0.10148386228081598,-0.09006181666028551,-0.4716824624250415,-0.028244193037502724,0.3977379222828344,-0.21800926262133705,-0.3197315852718308,-0.2410001907205975,0.1643566688939373,0.12054732414378208,0.10973381678413319,0.002892128519752346,-0.10160395689575134,-0.575653583853349,-0.43060551211058345,-0.4721722329051693,-0.648212983243312,0.1508521825349632,-0.23649202620955329,-0.04458931009582931,-0.2300582571399765,-0.11084404053885301,0.2496915373189343,-0.21813023115467947,0.11961362554508807,-0.24410010409352537,0.19014268981603286,-0.4008764963259651,-0.012460011412049117,-0.4198509843845782,0.016599287948935833,-0.2466478404734876,0.1338465627034762,-0.019811279848330914,-0.3382345073700734,-0.03322607913610699,0.05698239696511947,-0.05374459499121555,-0.6235402060298951,-0.3513688037284821,-0.7334547926556271,-0.29599324887929135,-0.8488947155534423,-0.5062701883026108,-0.48859819072482047,-0.0446168855554877,-0.1791154346291697,0.01782996501953995,0.04582485645056372,-0.4827100333696978,0.01065483359352271,-0.27623526735439013,0.2630215094373645,-0.34758026160610217,0.06918285290400188,-0.3267599268528929,-0.055505262933344506,0.11726081301828123,-0.4457430052824379,0.0016536352322018984,0.3937960303933736,-0.29906556719243643,-0.41650656071044434,0.4961193091288865,0.0007449814392383517,-0.6451474698714105,-0.6307696188213373,-0.24191047074300526,-0.4594176908257975,-0.4660343974484679,-0.16833749197452308,-0.6476472102552213,-0.5294743672985586,-0.22674464522327115,-0.0141705737640355,0.6166594640612884,-0.1611764196018085,-0.6593271514547285,-0.09329051674459171,0.255080349700015,0.1531894763360083,-0.2078621888672197,0.38967619308580953,0.12866271085238346,-0.21848490330617862,-0.10824086387289245,0.04137519553461661,0.3179685970795925,1.118200232953856,0.354278179964355,0.4858787012987085,0.19381121163568057,-0.3709349561927262,0.08892622444996874,-0.21079993285716805,-0.035190738966674746,0.5556101118008793,0.10269958070879823,-0.08626923329904337,-0.26830827357803266,-0.2244544155579229,-0.2637276014540082,0.28751493794155797,0.11424550228026326,-0.568191406448559,0.1259173672866264,0.13777851780664954,-0.13356552217013057,-0.32386759907008805,0.03570003406524705,0.1986775662905226,-0.17381770315393003,-0.025588740215346236,0.2411412745995905,-0.019827994647290778,0.4805607389941892,0.347693285119907,0.45222085592887695,0.16380136659767985,0.11839651876263421,0.2619211681509883,0.18731678158859497,0.41450732633913856,0.5906626271527676,0.10562210457521105,0.06206627966888877,-0.3188701069791536,-0.08854909708387107,-0.003022374402170516,0.4934691454352242,0.5247733675666436,0.025225274135535568,-0.40611176313468206,-0.353553770447367,0.271787992951381,-0.0508000080534819,-0.18933132682732706,-0.1527054055283467,-0.18859664862975478,0.32712176259366454,-0.2374437925667298,0.02122917771084077,0.3296786860216453,-0.6369490714329114,-0.0604018827247023,-0.326909614505993,0.5677068316622103,0.008438494941069592,-0.38308049461472116,-0.0754731371077678,0.42962580590171856,-0.0028302502439332723,0.3714721211433062,0.5759201131563775,0.3845379341348856,0.6951680208854214,0.3847204545058171,0.12797943873989082,-0.18305479955683046,0.27968983344672255,0.2947744342317839,-0.03751921114451449,-0.12820498864843066,0.2354484624153695,0.22624387788693773,0.13520654609116414,0.0515328508336097,-0.23365290037032155,-0.17364777269869705,0.13538923447575335,0.13655682579075615,-0.3460712315933022,-0.005393720516390201,0.1166815159872754,0.354292087682071,0.29411698295949007,0.06123667636723946,0.14643233750046059,0.14235126641674445,0.35288474111957674,0.499403020096583,0.8274137589784607,0.10962882270889218,-0.08419629804967045,-0.6152897370215397,0.004071494930437088,-0.8741250663524623,-0.7043456549493465,-0.11899541879912028,-0.33508912424023324,0.08897877798957014,-0.5275047052540591,-0.31526295690262685,0.5115557688134819,0.060966085564966,0.15518763684667647,0.023847960726832047,-0.055736818796711045,-0.03674710259449734,0.3578865317248939,-0.38497531561544635,-0.27678448906474723,0.26835272454526726,0.2072632465892355,0.1947062358062329,0.6174600091704313,0.7036101002784413,1.0057468521516346,1.0546118936393563,0.2556754316646063,0.1031041781734626,-0.21780894768468734,-0.43851583398367683,-0.5312885919894218,-0.09844211313908564,-0.3436381241218089,-0.37689280273671316,0.005617543783011071,-0.11938429468479315,-0.027768220495069454,-0.0548319310009697,-0.11797924648371057,0.16951620462350547,0.09624423847223322,-0.5167995175347325,-0.05533118819383481,-0.15743089730254586,-0.145881580933368,-0.2686373484532966,-0.4587179747099919,0.17247669923348607,0.3244566169607036,0.08215512341332079,-0.23586450411744553,-0.05349277624531085,0.8206343423853016,0.38346520632632664,-0.06681189370513678,-0.03805192152937497,0.1555530192648434,-0.5283826978458321,-0.5207939103179525,-0.1615460661906578,0.010782972638199518,-0.5047642133616875,-0.02171747222276088,-0.09816228824070186,-0.030098963779854215,0.090200065599846,-0.10926567958649844,0.11712701075399916,0.0926290435406069,-0.022643324469664917,-0.18907285991892758,-0.15001214165216253,0.1610005420984554,0.5758630836911124,-0.2282202836612627,0.28728958232381935,0.778154795777062,0.5303864399745319,0.3806481435584623,0.46371545996655145,0.690585667274309,0.7418262609165206,-0.3462468714842622,0.6295172955639845,0.3321423700108706,-0.36935960066287754,-0.5661828257580241,0.011276744599492121,-0.8876365707845917,-0.005358564433492994,0.3137188475793436,0.22742850998741285,0.1363095368571837,0.4246677538952203,-0.10223064444346551,0.1986046282108873,0.1642322699384143,-0.16745663590330404,-0.12284385446622986,-0.14109744032682717,0.6009372311876412,0.3050054286091738,-0.07080010997695073,-0.4025721505969667,0.4009607684266743,0.4832724890818438,0.8307503211872336,0.21406867983412908,0.6255516146342931,0.1736102519253041,0.3544495155048567,0.6537590853298509,-0.21963883892176553,0.27970242210442586,0.6909894540244012,-0.08920866726353686,0.014787681401311868,0.09693407541684364,-0.010327135077481718,0.18956290949576912,0.05582336739160599,-0.4118921193097169,0.10898108553787833,-0.23138829662154117,-0.12661892369699976,0.09778927354339324,0.2581379838986865,0.08584048275175035,0.5442211414303086,0.2638946209489208,-0.16823432223332252,-0.4447047076704271,-0.0820390604533555,-0.4938472022877368,-0.09971947725816,-0.34855632206259,-0.30792330996082645,0.3949946612813144,0.269721788208176,0.3957114912290607,0.30641422226244935,0.8425433031080771,0.9912028050256554,0.1081496498246203,0.41211321456471595,0.3257704746953567,0.612529509897329,0.3363432656579106,0.0821559563598921,-0.1517332369237382,-0.32082542156179744,0.10223568223106365,0.16794004888894656,0.07189491680062346,-0.4011125654017614,-0.6179472892845054,-0.2653525335007015,-0.11461443116670543,0.2689959622021682,-0.26176307440712826,-0.7734536021705116,0.2607341899309498,-0.22809365762665532,-0.386632865935943,0.15491366954173852,-0.35014210931238215,0.08738622173016942,0.13769222483383925,0.2248927499880356,0.4015519389086597,0.2057805797548864,0.31362544966167627,-0.5418383321325057,0.6405493114396863,0.5590460172385977,0.02746850546297456,0.08289912344542327,-0.18731851052369092,0.16958672987918058,-0.08291340052771072,-0.09653099284817775,0.12700989103388316,0.17062900167388723,-0.10627296926400047,-0.25552737602208914,0.34055125051965707,0.13792937543695624,-0.4254137906644468,-0.5923693316263876,-0.3644842828748604,-0.3298873658495676,-0.6265959982385291,0.19873575501234272,-0.16658977967743005,0.07971547777311637,-0.3823922078115981,-0.333717605336343,-0.1770688276095828,0.36858863446591794,0.16305754910412296,0.14986398026126602,0.3235374031950373,0.6428360390692331,0.5474763014675725,-0.24003595175060063,0.38203676619032384,-0.04349841185224553,0.20681940422703823,-0.3826870739770432,0.15924512081749922,-0.4961654104366786,0.12433907142464452,-0.3622193385798373,-0.24800585562518757,-0.3624719572229392,-0.13449402481559639,0.36305669898094445,0.0892896054367282,-0.08858329141871406,-0.05319752567206318,0.185865820785354,-0.49564315723713087,0.16975192328519131,-0.1552120146213054,0.19056357295131182,-0.0994794845651931,0.7300493450334982,0.36867874639171944,-0.2603127825856715,0.25172295350488993,-0.40585749274630056,-0.2809412207257477,0.15741239211957828,0.16095183012669081,-0.07481281699923177,-0.05508002972540756,0.21612915000878274,-0.2220309202093631,0.1487331501104348,-0.22544651236835375,0.15253441014495578,-0.19163972470686097,-0.6267001668739154,0.06636919722561416,0.18013410566257912,0.32872130181643794,-0.26862851731406107,-0.03905285270399078,0.24985960127600357,0.15779623492749206,-0.3871415533361466,-0.26081474808324207,0.13689831076613942,0.06837905411429776,0.06601901534692677,0.2425065233169657,0.15102685201301025,0.153506309243394,-0.11240922556090904,-0.005518838768216878,0.1322857300595691,0.5722695265430957,0.006862836812312405,-0.2661381056532264,-0.5878558873664588,-0.17550843108134964,0.1512369430713031,-0.023888874758757027,0.012944606405701671,0.22660990373284962,-0.5545105446263368,-0.41371533856371057,-0.5340378750139159,-0.35158025604590615,-0.6168085170847276,-0.6708380618787714,-0.32959961175082264,-0.23212563144589066,-0.08744166276864711,-0.8487196641976565,-0.4494264689325116,-0.048570395407391644,-0.03396854251686287,0.14751444462224697,-0.40389181660511925,0.40705454424420184,-0.3428718542798059,0.041924247834439606,-0.14495695056393743,0.08770578129527469,-0.20850933444065353,0.4543885529662172,0.27212712486895424,0.20553714269772172,0.2531757129621368,0.29948392428413007,0.0006318100309509624,0.2997370285764713,-0.04243490156060481,-0.1460498787179697,-0.27397561897301126,0.4425785324315686,-0.011485648200539877,0.14883366664516604,-0.009582580159983327,-0.35406328670724807,-0.0158464352040949,-0.11525459027300136,0.19191645375437158,-0.13413938924979904,0.12205331096187037,-0.2012756455042142,0.16626319750502444,0.0657950985839667,-0.5697365612303256,-0.016139067088564236,0.10351582399259011,-0.08890384808182716,0.16163331099475423,0.1980380597524345,0.08127614258167644,-0.023552859590078395,-0.13930604971634844,0.1352801767643541,-0.3576733245195231,0.0677585739733468,-0.3104309691703957,0.06531258032526586,-0.06441131118420079,0.05075587939310068,0.08932859069098574,0.1291652164241779,0.10756095472024622,0.2322752321687055,0.09574633653177975,-0.3048745979667289,-0.01094083969670598,0.2110816779554476,0.17921068247286442,-0.07477690160261947,-0.3010622268831938,-0.1862950849387407,0.206332080764696,-0.23611782196288308,0.14907042146660388,0.40043043182231486,-0.061429336511840425]},{"bias":-1.1685675932726183,"weights":[-0.13007864286191761,0.09994389140047133,0.1388937868953993,0.19023826144014797,0.4395292787036548,0.3472721689225485,0.11659042350947857,-0.17687908606603742,0.1813129890554895,0.050807920595010124,0.28507920626240474,0.10237284408261378,-0.08442312393647929,0.01915821184714635,-0.0213008855159084,0.25070827927750844,-0.19390163275723657,0.052607577216501035,-0.23480810962306956,0.140541480621323,0.00612853040608267,-0.26008244914313156,-0.16552006468797723,0.03545803599990904,0.08396479611595471,0.2947502563862751,0.3235345383485158,-0.16895665360304216,0.3040734144548575,0.3833902695526679,-0.23718395611892143,-0.22372787546676895,0.05498391940879325,0.4697350449083994,-0.04697402263991535,0.21979665438324195,0.11621504434697358,0.25626393223094784,-0.07721565939626084,0.5273186581159762,0.24806519448977205,0.11667546751758462,-0.2332860854341667,0.5469840670319086,0.58304607672043,0.07660516084348393,-0.0574683126323801,0.02352237199233322,-0.3861448609334302,0.16656948008718897,-0.25891109521968075,0.00005000317469239235,0.019935061301415164,0.08361120421128969,-0.04363668391791483,0.0729245983529836,0.04110745612221459,-0.11166584344270329,-0.22541905792119601,-0.00044651500259836513,-0.15007672257208646,0.09268741454411057,0.06708700190448272,0.19585378466285416,0.43892029090604945,-0.23589413262691372,0.17323197522048567,-0.09947194910812214,-0.3178646982767198,0.1254665242349371,-0.2834610259450216,-0.360589082763052,0.34503729533144817,-0.2677806876850794,-0.2447010670256956,-0.3724603014607279,0.11907892067710706,0.7242973767437534,0.1354508572973753,-0.312239425578506,0.5362586984903104,0.32436032926974195,0.05155945266596973,-0.12488985977446039,0.2544875835689406,0.03782113711349666,-0.35106685959423584,-0.11863804950068395,-0.0041586455124767155,0.03339308749839448,-0.09473477398154295,-0.1611770266202807,0.04529419674327279,0.03882799697550672,0.4215830861110434,-0.17941810434036162,-0.13416537068935194,0.27327828280050037,-0.12226490840324171,0.026995050249605013,0.22354172883108314,-0.12190510457578627,-0.48119942691230494,-0.3375585504703603,-0.19663296246769704,-0.2709621885137613,-0.254258015107988,-0.023402003488040564,0.2992393959685799,-0.09292117436416447,-0.20806537366782626,0.19702903747869036,0.17963718925602734,0.06409424163090686,0.3039013688297321,0.027375553691383447,0.14482427104186008,0.17581678579085672,0.1919737260666568,0.07455363926287922,-0.019151187962140874,-0.0404035272415913,-0.4075168114263122,-0.11942837805991818,0.16641203130951474,-0.034084065102046916,0.3188210419105636,0.3661312055889123,-0.1883983034369536,-0.4470740359685621,0.02099421536806447,-0.17501477216466832,-0.31101512751643207,-0.017106813096747688,-0.496786127462871,0.5926174831147019,-0.47546058823509063,-0.041567769614954876,0.042309527130176626,0.19177773936341205,0.04100905622666081,0.1099788910554101,0.23262780115029374,-0.0843657492729464,0.057411395365121666,-0.19480104744106294,0.2745373168477197,0.26337993967941176,-0.015019403844762464,-0.14307403246234193,-0.33786917944985606,0.24027013303453937,-0.5587136713621067,-0.20482616000652845,0.4646560689590818,0.2149726957914646,0.5593251762484612,0.31816555427526777,0.10782965777441386,0.3007287829696665,0.047778003908129765,-0.06256720847799958,-0.5705246179661111,-0.373289710415895,0.06536453141473574,-0.11244230710222561,0.25426770154790507,-0.07824723040519137,0.071288835334902,-0.12675473156074682,-0.18225960482009473,-0.28319771259817506,0.3358838258918382,-0.2836195342168691,-0.38884251366233175,0.22342417164264308,-0.2503112039250024,0.018470161937601415,-0.1526742531718538,-0.45460633881445656,-0.054979896927186744,0.7571373079248231,0.24546807763248185,0.01330751915437877,-0.031238535499669692,0.34244348520325457,-0.018722146784546163,0.16408234974136077,-0.32705532047921704,0.0720005831548757,0.3891541267054067,-0.1329703478629666,-0.16027369319542273,0.22956119544014666,0.008021595500959034,0.15693233248104704,-0.10028040037677054,-0.2146872451240433,-0.04080139966132408,-0.2243084167115692,0.06424688599611172,0.42238812825534916,-0.565654123478941,0.11098255800508793,0.3486018072835866,-0.2996267101284566,0.16861168211669725,-0.08568709756710914,0.1575141319396709,-0.12823937706728553,0.07991281864158997,-0.16888653124074224,-0.1621920578301696,-0.39783378764515076,0.21328975212161697,0.8962441356699132,0.12592815718474262,-0.20920778312918958,0.19835676225326757,-0.18294097367394008,-0.5269490149216253,-0.24163134735643035,0.4537012286050062,0.19636723302290465,0.3848841408331806,-0.2648648391950599,0.12795272121300633,0.3203139506784218,0.280375196475405,-0.39993584788744835,-0.4282579399998082,0.04804194737243486,-0.027605770115250543,0.21216452389485171,0.5746169996097075,-0.08820360966771668,0.20930514577961232,0.3841239570681022,-0.059789407621649866,0.0791914352126699,0.04039606378896275,0.11747822994815742,0.5130453542535828,0.35419950676405076,-0.14333010243910144,-0.4609973142560436,0.033674520282333226,0.22227329141676183,-0.44642507928553155,0.008904011090226054,0.023496921288490874,-0.150475570014122,0.05265542570464338,0.47111066822319736,0.013177532868221431,-0.14450258208636657,0.17075988170883727,0.03933938815746357,0.39692567136428075,-0.13971495012521243,-0.3042708228200348,-0.08869373803435443,0.5167158244116803,0.02251006474824487,-0.29096092766492676,-0.19968387652331135,-0.19581349979495732,-0.0887254534421102,0.4755850597580348,0.4286240322051435,0.029215026640627594,0.041395088456568016,-0.09363105934816507,0.15567326279206958,0.8923281218513628,0.4736737465082909,-0.15193124036987216,-0.02719722432666917,0.2707782586019821,-0.0850251800416903,0.21412974339909852,-0.11688556642863715,-0.28871316370981165,0.48612226492911015,0.21481939423772323,0.31213843839745603,0.1969453625268573,0.22496421582977866,-0.10002615804749122,0.05342253887047067,-0.19721554110982242,-0.25313214600507816,-0.10763985999845399,-1.1644420014452992,0.1933330707875333,-0.13283067227121853,0.137160747878144,0.2217206410041758,-0.3231985943743148,-0.0957326404825837,0.5593009148623734,0.8662072723382553,0.3683327017871365,0.36044741601061386,-0.22033675305108852,-0.05281981882578274,0.33048093324486966,0.18088943876015642,0.1703675176637868,0.14038708379013148,-0.07383492785558021,0.09486686029346753,0.14245493876061296,-0.18027806244085712,-0.642180911626636,-0.38012347380335093,-0.41506030520335946,-0.2976593554015771,-0.7547445130548271,-1.2886708201593648,-0.3382603570744844,-0.18323974764499867,0.21614647445028207,0.1654820909009057,0.04099122258196793,-0.2808334752163915,-0.19522600952729238,-0.0397142352908691,0.7499285607316712,-0.3719946286675776,-0.27961152426235303,0.10463650856808741,0.22880885807767706,0.1251900219570843,0.14619695426827425,-0.2338163077803018,-0.14113479107618332,0.3738998003893591,-0.35767780755158846,-0.24001726247720964,0.04880036753982109,0.04313193117252057,-0.7487684469919426,-0.8842117331292344,-0.8393811015147913,-0.9023349673492631,-1.1670701178609888,-0.6347785051098628,-0.5406472997924092,0.165611096338207,0.5100449639768976,0.004929955519390147,-0.3661799578440739,-0.2026331141520631,-0.2421908427192509,0.25305250866504786,0.19292830379642212,0.3299089958685011,-0.08218729792478598,0.07110815737397251,-0.239860055531261,0.33829996214942387,0.3874479571704448,-0.2904281187971788,-0.22117946444389722,0.17227208737513164,-0.3107562080770046,-0.05270214109412507,-0.13593720463364908,-0.5543977540345602,-0.6147251281065492,-0.5851986604672691,-0.28541940478754413,-0.3861134649076056,-0.9858949174963848,-0.837017764532321,0.047217696018759914,0.2309846064434925,0.36091386067655057,0.16451574598399782,0.5955401478284317,0.1619791689884074,-0.35211283777339897,-0.25653556355519647,-0.12891868381980018,0.3055820226702791,0.36823148512607135,-0.376285100935759,-0.36856985186523994,0.3905797171612425,-0.12315355839881337,0.41298194128709537,-0.13962336055313548,0.24041178741139746,0.15944546473028942,0.14109608327171924,-0.07740120204239317,-0.43022545733519585,-0.9428937216638268,-0.45722899381362564,-0.09014299233717132,-0.17918400047201544,-0.14834415261118025,0.25654418251533806,0.06649826008688822,0.3849756005430661,0.9568135028762592,0.6504628690522335,0.558890285436851,0.06343613860040605,-0.31974441294392564,-0.8141484646069053,-0.034825010049806905,-0.33368503832977175,-0.044282939667590775,0.016277485087450857,-0.45186116867051157,-0.24292151804616363,0.06884625827231276,0.1257195589132607,0.12615442291523019,-0.1856167281421814,0.03900526784026926,0.35617808821407304,0.22362144492579786,0.2982913446695156,-0.44599126367798664,0.059023748718366985,-0.18861007189592185,-0.25392377076735667,0.06710722126582196,0.843683409712975,0.5799045738168555,0.6534763179698067,0.24125864322462137,0.2451440225246897,-0.15300964513836451,0.33075605133453145,-0.00018338316784282898,0.32891882277904827,-0.1915904373171434,-0.4145370958408127,-0.667825505474938,-0.10608214032492876,-0.3158291143097309,-0.3374065338462528,0.0004334636324876605,-0.024465295553641294,-0.12331936314391594,-0.2690854958879451,-0.3076177971936647,0.2168971619920101,0.4430980198575327,-0.23342324198764258,-0.2070903551504288,-0.1119191745087947,0.4097857963268379,-0.8656444675181891,-0.10825032131526258,0.555703776845153,0.11873154582025681,1.265040363274666,0.4505851783896603,-0.318035040728759,0.21061200391088117,-0.01873143813842358,-0.3203237053646312,-0.05837343634587366,0.14939484683214252,-0.1408476620834411,-1.010268555127407,0.0656460687446095,-0.1806668863772069,-0.056454638588681876,-0.018011326723674816,0.2658338635672828,0.06520322826690972,-0.13552654371596873,-0.23552777626009255,-0.4760699569201562,0.7025540077421975,-0.0914610635516432,0.2917551206948931,-0.28045149824636223,-0.263083342013321,-0.16059000633653103,-0.3237545165310508,-0.09137692575844529,0.2757245937227141,0.22999498932554918,0.015671944611718367,0.2456727975952518,-0.06323448695836847,-0.2268395598817819,-0.05488649391711723,-0.5758976979918046,-0.5764925777626511,-0.27936606394566793,0.05770588504426939,0.17840515916287608,0.015644159626091253,-0.43923291046753626,-0.06874105222984225,0.4041304443838995,-0.28655381648180384,0.35002202711378533,0.17418849901679026,0.17197815388473237,0.37588749222296763,-0.27360104681826425,0.12544332116680845,0.06412072658090406,0.04352093584101669,0.38146881180060527,0.3635090606475936,0.04504050062280551,0.6172844337335615,0.2148603818569044,-0.012911877928984981,-0.4180923680793397,0.20097830299273609,0.35851228086332226,-0.3302433666664069,-0.1876118364758692,-0.39185897657971663,-0.39866102147872573,0.525664377766131,0.48010733365325553,0.32671974956388705,0.18250610155979008,0.1459117831415899,0.5748805143939201,-0.270336686167866,-0.06687776208855212,-0.06002143827526741,0.15591567180695606,-0.05188850458882872,-0.1620217977146437,0.3751079165324767,0.07850181334517735,0.5082202301433287,0.2882968172276179,-0.10093343898529467,0.16393143768980273,-0.0237269771994518,-0.1323490942934893,-0.5138297591242685,0.04482338213053104,0.35944782102805184,-0.26180774369315746,-0.19705676543589362,-0.1650092641000909,-0.3762364024720179,0.12751700908200012,0.512028331185635,0.2864217365730224,0.29510154467115735,0.5789667696990679,0.17816676579970872,0.08830907974660106,0.004189710210387905,0.5506479567072043,-0.22322721506139287,-0.5609133197637228,0.2568789571344214,0.39931625849875746,0.5518130837657291,-0.4090971634202307,-0.11804416382679227,0.15268072368711458,-0.03337425764384665,0.2247004444355282,0.39828142644334796,0.1985158905748892,-0.39277001821946766,-0.6530893962646396,-0.3880720445952132,-0.2198096544115853,-0.09744153914321653,0.14145578459365657,0.20791446977094521,0.15183684595566255,0.5147823184526619,0.3833752251310583,0.03775532228316403,-0.014623899872771441,-0.346029700206136,-0.19701456969293454,0.24489402514882386,0.06312739080749452,-0.02770722447351772,-0.1606676877300988,0.018435670415055488,0.21367848232786907,0.39746490458224476,0.4888186692498381,0.39931003459989833,0.25715606840292016,-0.10793026029487263,0.3145637043371183,0.14484329971201176,-0.08756145343207654,-0.27180506183746905,-0.5665282952372643,-0.16944609387967732,0.686788466504673,0.16387669278912992,0.1725537349702392,-0.03213597206068692,-0.049651740731474145,0.19536792058679994,0.18005602225594522,-0.1556334737772304,0.3204766176403435,-0.12242988235336073,-0.040910839956874646,-0.034953742288053036,0.0791256153024733,0.009457720299352596,-0.4403111104446685,0.1950364313426344,0.12828172316104275,0.006705678664511015,0.5504220807124114,0.19933222330376796,0.17593576138140504,0.27399754472025356,-0.1619792715664065,-0.16243037679408323,-0.2997093401681877,-0.12822275131219774,-0.16803755305124113,-0.3094128703152094,-0.12064833675942187,0.2973803626165824,-0.4816788212556725,-0.04954017423109479,-0.22571249068497892,-0.12962708521090127,-0.4837271840970732,-0.22311001025535726,-0.21082005282990482,-0.20832067162314713,-0.06222031591460109,-0.1524047056057801,0.25884653845181066,0.08934822693101709,-0.17159130765622096,-0.06957156470603033,0.4071515879007299,0.4544434462194201,0.39935106871959375,-0.31461036754842453,-0.4746995445064878,-0.2648634114837644,0.23385546547333563,0.14694838997787057,0.6222168291684166,0.040222467238223314,0.10593567182008941,0.011343633882973539,-0.6260329297918575,0.19317074836793338,-0.3318304170002697,-0.3787783874453213,-0.13246349101376387,0.04442545659633462,0.18437611318218886,-0.08718686928026663,0.07389888324446313,0.26181574384166056,0.04238305714291831,0.04923698833833138,-0.37954525245974463,0.13730689673684537,0.07880721372185544,0.09563614302544252,-0.00104961804031887,0.21455557030089223,-0.04137413574150515,-0.08393647841687302,-0.25809568279682027,-0.12072813833827684,-0.1673635495124256,-0.14738301932615103,0.29412409989290533,-0.169426059790102,-0.14104819563832996,0.08978642771460277,0.274689834067522,0.043920744414731025,0.6334307135252653,-0.4781672823618845,-0.06712574917744048,-0.19343175762475756,-0.10311532880747888,0.03365319161771946,0.009571095618108908,0.0006851389383276304,-0.009986673869813481,-0.017610693195213873,0.008475979402040442,-0.1718509611673653,-0.3401535270342462,0.2336340190100273,-0.1905522724987495,0.06833286546292307,-0.05411072246684636,-0.2766422852485042,-0.3414896031470862,-0.5957165118498787,-0.35779099415682114,-0.27953721047370544,-0.16986472877818257,-0.4378438204177288,-0.20585233722699064,0.14268507425380572,-0.04880626418544583,-0.42345925725024935,0.04395486402256645,-0.4259988580050252,0.04611079806106172,-0.2450244369416378,0.14153768575317408,-0.2705200207229368,0.02499301064138611,-0.002670761663466692,0.14903032802976668,0.1360807258170098,0.11635908802660803,0.5588734745203207,-0.3767015791815718,0.4280483604237071,0.20652679075435482,0.14177529766773583,-0.45062224218943825,0.1722007725113697,-0.6753398218197142,0.12478009625524533,0.0960972637997692,-0.3614675786844491,-0.16602294020737676,-0.16735159156037516,-0.31992747762380175,0.10149213473718684,0.5066667520379826,0.10777818242784118,0.0656270182260586,0.11930550287425173,0.13519370078640763,-0.13141953589642558,0.24320602258907484,0.2745075256098062,-0.5341766828205436,-0.20590225793421268,0.3326177136817326,-0.0929588476040711,-0.15131793939508498,0.02318934102853139,-0.0021978262811899185,-0.010450119928767284,-0.22195326348792588,0.3473176722139166,-0.14677180871214296,0.068986527252519,-0.04864624281389663,-0.2586305512519358,0.14321619973849775,0.416726904679023,0.1462390035758235,0.2745642931883844,0.0842731456269071,0.12634576765246822,-0.18724301662682938,0.04438474394205216,-0.12969799108220426,-0.057292682152444624,-0.2245391679985489,-0.010765078682819094,0.10388119992179175,0.4456916127819568,0.15233024077800414,-0.22334709856659174,0.15734574369465312]},{"bias":-0.15751491023861675,"weights":[0.029625033494085073,-0.24365677521564066,-0.24507273205866417,0.027222530373061698,0.36695048965824145,-0.08425219582083325,-0.25580088918407756,0.35560047867087025,-0.15767837261470655,0.0684835381495456,0.2882940339234968,0.24103162507526577,0.03734372377706071,-0.2693096559184293,-0.012657928979024291,0.2645936526047687,0.27564764535054564,-0.08130075378964345,0.19406387186609209,0.21131365179705122,0.41596155272175867,0.007355671686430772,0.2637355843714128,0.1321764406748116,-0.10897352282578747,0.17066112207248807,-0.21229195098082224,-0.12649591507700583,-0.09587006201036274,0.22184833185747266,0.26862783132431406,-0.18452200666069984,0.06717370776459575,-0.21635408466681838,-0.1579846874034653,0.014396039465160403,-0.41153657141687655,0.02915857417472651,0.16638914537007068,-0.11522184988278489,0.21778920099146756,-0.42081792371484206,0.16274448057517465,0.11125576111729749,0.06690176708584737,-0.44346873211639287,-0.16187938653661993,0.13512977808258,0.04276616120898108,0.2090520399632881,0.1418116836380136,0.20034878429335853,-0.25972632427389425,-0.0841330074860404,-0.237495557560275,0.0318372572461764,-0.02846491088469823,-0.164321881874154,0.00030415295623242855,0.0006620274701466163,-0.197954168673395,-0.28247149508425506,-0.15666191354862546,-0.2576668583504307,-0.429206726772698,-0.08555680631588965,0.3244183154466302,0.031224573084138167,0.20101254688682277,-0.11934864058073372,-0.09732363194438358,-0.19496516013960266,0.27979697792307534,-0.13106189920571346,0.200223616839384,0.33256483104790585,0.007145383754805445,0.04280986954848564,0.1853265312774316,0.15271005026309223,-0.36641890346732686,0.15928618384835622,-0.12425433549409111,0.12447092263028026,-0.025788853255410988,0.15908828532944122,0.046074388936782874,0.10938544695576032,-0.05149482000071055,-0.20059183842775508,0.17035835064969473,0.0022007195289589047,0.0032447670141358314,-0.06704137989577655,0.41550665470481396,0.0028091694602763945,0.0030711044393333903,0.12663492003739776,0.47965872021183625,-0.010907946462822062,0.27765389310077654,0.20850005078094966,-0.0058197878422373474,0.15065055286824597,0.10871819263403532,0.019541436241216688,-0.18234406342085285,0.28194621199447456,0.19730906557745423,0.2845142886508256,-0.22571583293999234,-0.12740504772712788,0.12302734307013452,-0.06089069158770144,-0.10118513127478461,-0.2501188886186325,0.3297456896838463,0.04063094051306581,-0.3831692890891367,0.3956049224268911,-0.2193026423047171,0.3177525051193825,-0.07815763851649683,-0.004363640400610144,0.2094624442338792,0.046558090691226524,0.16007482966065906,0.04723933925706842,0.5114192998587961,0.27126273954881847,0.2767720371885553,0.27689714193475423,-0.03157066401080614,0.1591334403682618,-0.3846064158722583,-0.04683186298496462,0.027962682295456658,-0.2616026582553134,0.10857928210558991,-0.15462578313114742,0.08484631404280663,-0.10128397036654253,0.22239800410013286,-0.07936447081346854,-0.2507486624886792,-0.45737922725831953,-0.051667644115826104,0.004742256323072336,0.18813527636464533,0.07436952071616808,0.41454053815246344,-0.649336815923196,-0.154441584005248,0.00021567034958515903,0.14976178656539937,-0.013058209979569396,0.7303020022932584,0.887833382809595,0.10669664697983172,0.107066068535046,0.22002841227402076,0.37346332430965995,0.19828586480820243,0.19156421474232188,0.20885913509142773,-0.19573971758954978,0.3508455400149906,0.22442222926273497,0.11070114001631737,0.09636193886399269,0.446583172881465,-0.2565632243065825,0.019356920998274334,-0.1805989352200139,0.07890478370503769,0.03116881482181556,-0.09846263769873093,0.15609081212942,0.24304084840058016,-0.4263603084137476,-0.3872418752523434,-0.4371387853314822,0.06901810112913553,-0.41933191083752364,-0.12711160363463306,0.019772749094002586,0.029240547453959893,-0.02288688318098305,0.02405895103885301,0.8090188369914346,0.1829113872567472,0.513397837519013,0.20000538283805339,-0.031149725781065212,-0.01949456667145004,0.24042843311236664,0.2500838017621646,-0.12753059189486,0.10346314795662462,-0.08317520458687011,-0.5082031003065219,-0.2923345310223974,-0.3909944571537023,-0.5170809354995686,0.38958808679169904,0.407897905442377,0.23342349833203463,-0.5241794484752155,-0.5994698415488988,-0.5433265366201473,-0.44320598036263503,-1.2006780363576375,-0.6405113521562299,-0.2373683542598019,0.13666779567783663,-0.4155575352206412,-0.32229705709253986,0.257296908125279,0.47558528369083214,0.38121713155264647,0.1157877633339469,0.5179284096564345,-0.0289426935223183,0.025355588975641507,0.12050042457025648,0.2828346448783874,-0.27432287854403925,-0.5432506083635221,0.1230371882717391,-0.3907668053976555,-0.2633326231130656,-0.242282993447658,-0.14548419458045528,-0.2935394477529896,-0.002230456438310623,0.14709744923570547,-1.311260718927607,-0.6917354481775747,-0.9669543422306058,-0.6488476643964444,-0.7914319534992669,-0.3524745158172663,0.1504797725360341,-0.40496500628165655,-0.13994534364013486,-0.1506546358751709,0.5122216494278679,0.6572799452370686,0.028754550072715705,0.07153914870684186,-0.06905231051733059,-0.2026036267207837,-0.006609443999540407,0.4220525661111307,-0.23520067071265593,-0.40880583551005895,0.16010006271364843,0.02525798432225588,-0.33060576739811803,-0.315788585876961,-0.2730665353469361,-0.3572907723329697,-0.14541812913233368,-0.5614531624913431,-0.9474224961779038,-0.06722612719044307,-0.8067270198527154,-0.3761492857873777,0.08820401796789737,-0.12155552747204956,-0.07633756942871397,0.019396273886957232,-0.35293216274773015,0.013710482032441398,0.32557379341363446,0.15287824441110454,0.009805008227223966,0.08200346145783852,-0.46664009691621533,0.2610242946943884,-0.45403012897198397,0.4743215810596653,0.16426970169888871,-0.1978903263165908,-0.4227644987342292,0.1320552673671261,-0.661657975135917,0.03685350512099686,-0.809775322556349,-0.39246068247458016,-0.18909814182851992,-0.2209832529418134,-0.36414476950778213,-0.5291046614563814,-0.8682570453180944,0.41832698099246957,0.12845041036362903,0.12381344237585419,-0.18353508291815418,-0.1967994918775955,-0.8443506585644529,-0.3914923926813471,-0.16942401035590682,-0.4732085561215717,0.13501531006549097,-0.08996682149736694,-0.08915013911574025,0.015706665891533095,-0.07805884792469442,-0.08602985451597386,-0.373566526584337,-0.014334182134683458,0.053804014354456545,-0.1753683656042537,-0.5525596377389396,-0.19488893405685673,-0.26702638801271417,-0.249795414345686,-0.039539019924544304,-0.16037704981569217,-0.044693592489840575,-0.8321628011370779,0.043480851726487295,-0.2610543887562666,-0.640921409806705,-0.3700753839118339,-0.6710600263138335,0.10139048517887912,-0.6402616680685808,-0.07944733148093869,-0.16013240617092322,-0.22219251053543781,0.23094426347258018,0.0877494915371197,0.04800820928315844,-0.32317983355577057,0.24466322463316223,0.03680527389511455,-0.18433987877453897,0.010667401506294251,-0.23054385525768661,-0.2292899569323579,-0.20685387212563103,0.20420219205972814,0.11736390120671318,0.40141963411519505,-0.1272453473508225,0.5371114126216087,0.6803535888972185,0.32245626768901964,-0.5768032819531175,-0.5439163005750358,-0.6416023287136715,-1.0118863015246615,-0.3222625738368463,-0.1281943944928532,-0.3575909090600438,-0.7254933734310686,-0.028653917395923073,0.556453923593871,0.39198352721706087,-0.04224896544238328,0.01895798729684084,-0.30764681096533086,-0.06973275790611903,0.46702708048080227,-0.28586084516863053,-0.03246622797798307,0.08843834382122558,0.13414132008119775,-0.13524996492537217,0.07180330128718665,0.2620331358832095,0.6553457221375966,0.5782409602683463,0.791396305256133,1.048941913164264,0.06197004420340451,0.19781818114210953,-0.35764781641900245,-0.2518170512238684,0.19510369232907568,-0.0332076877016104,-0.3696749025358001,0.4203544277464681,-0.553799889222278,-0.08372454377781768,-0.1037911829149486,0.3428799309517414,-0.2732224350855138,0.33646044891239646,-0.21244627834918597,-0.14139603660441935,0.10245649187080734,0.13340469269045002,-0.27701431205096005,0.2618566088539779,0.4177623386354907,0.3949128163362463,0.5785399384284646,0.6455332562104347,0.5621363653082552,0.498886062019397,1.274355973012089,1.2809082131708562,-0.29292311291584283,0.15798389404629884,-0.10281388911302417,0.07490963814283683,-0.08881800956853582,-0.17562029980223684,-0.3213257331938749,-0.1579850876166477,-0.3284273302285111,-0.04284210869006611,0.05929846401287503,0.08904814140261903,-0.03263499446731924,-0.6176077223505531,-0.02924454507107536,-0.342901497380808,-0.3334083203301602,0.13757848763105923,0.14390684290534123,0.03544078032503243,0.11510698613242322,0.2646553841040895,0.5506906116228926,0.6569400759889055,0.36320750336445246,0.4138136726610761,0.9405756484375087,0.33508006092652837,0.3746478352416658,0.4458539170889982,0.6715817079020847,-0.31156632663995404,-0.8798585655612456,0.12527999726861624,-0.09982743987199198,-0.12345902294569855,-0.284063535937296,-0.3352862388684087,0.308518806658882,0.27341401636220614,0.19288635186593117,0.13209023986906307,-0.11187398118085644,-0.16497058731814226,-0.10794814264712234,-0.13742087270256842,-0.06726168702665113,0.1610272250497243,0.38263583407595864,-0.46086002514585145,0.4187425074077046,0.3403965061178048,0.20485921010853392,0.14034529766871848,0.10144779031929962,-0.6360677395456854,0.11032256414740632,0.6043598560658159,0.5813829824895145,-0.38665790060660915,-0.4853699996457813,-0.2555969071223378,0.13137716178207057,0.25740503798373393,0.1702767093255366,0.446509016915728,0.46967601731347197,-0.1753045034166619,0.10426754034703808,-0.21527926065923475,-0.1826846310699182,0.2981040250354757,0.499290148805206,0.19862143342601268,0.33594428325172326,0.09804164504098987,0.16947462889285375,0.4115885095526169,0.836297114478033,0.285438773135261,0.5473264727190621,0.22924295645478263,0.3583276562795297,-0.4628381853314562,-0.20324469214320404,0.009174569365196632,0.1317361331112059,0.14699479265426624,0.19078676316503057,-0.20314530576212142,-0.07566727735479856,0.7088498341866729,0.44588386496755134,0.2586375736107501,0.1453988484876301,-0.11156296513755516,-0.4248725003588862,-0.023819597947006565,0.028177869656804137,-0.1674469173885882,0.22117640644622347,0.23754541267364762,0.21572751224225337,0.21009179514135054,-0.14315869682723692,0.09022500414501128,0.5224405312305609,0.3321701545601946,0.382649696700011,-0.19857670203715155,-0.13580458553495764,-0.1261839309456016,-0.07617139748380666,0.023032741253078897,0.8178191831055933,0.06997223161135356,0.49735733256582454,-0.011200096689194765,0.08055465358385089,0.23410817206146028,0.038234631150921704,0.0069239635012404935,0.1475035948189896,-0.3665176503235577,-0.10683384934671544,0.3000921349943246,0.3098447386825412,0.21661207103170455,0.2005179823221018,0.367545534075487,0.4151458867410794,0.18122839551741507,-0.10684105383894335,0.09194950061390376,-0.15251089475967777,0.1946029594144848,0.33936637365339084,-0.38020918213396493,0.32334435081314306,0.7269248200270444,0.18838919085260042,0.2924768321717521,0.1913293800969511,0.3854952272505945,0.2994789272675862,0.12341044400814116,0.25735968549184074,0.2286456904637146,-0.29873034422815886,0.20833477420373353,-0.16545137335792526,0.310038983296789,-0.2955105406144045,0.026883330129982497,-0.133449998756593,-0.06530792436872919,0.3875242703749488,-0.008771392872495586,0.16737924451275296,-0.10027782810816423,0.12366142303798187,0.25504748858029697,0.40125620817316104,0.5868949630750242,0.5561982758937447,0.41034698578739576,0.21075349093585544,0.1231396335143729,0.20844920806085546,0.2473892183949926,0.6858229633709041,0.651463023834338,0.8062329743618054,-0.36270181732388024,-0.059594651983050535,0.4802847674727906,-0.11896872751139208,0.34378996137309986,-0.043866334779700436,-0.09889395252787736,0.11739403870075517,0.18990487998004074,0.16278153619108102,-0.17656003086206815,-0.32632300614689785,0.12311023576688168,0.5131081524623725,0.10690366286678739,0.14497015945320052,0.3037927183792695,0.4302611337842973,0.8309350560876512,0.2682688302529662,0.20522659527356926,-0.04806168381233749,0.23507753877827642,-0.22777679973649398,0.2073653312472751,-0.2604102334677288,0.4472728110327985,0.1577937055758603,0.4508220415073447,-0.07138059396727753,0.46771912977584307,0.12365929037577421,0.0335013121849693,0.13645895305028083,-0.2526681099871154,0.30478015039132855,-0.09120341021613412,0.07394999832225342,-0.2805121017154306,-0.21154431207105517,0.12955800193055586,-0.16776642871242003,0.14343433646033268,0.08753010003280244,0.07765378509457946,-0.08957531253392684,0.010976535074267416,0.504535748212163,0.1577821454833525,0.17822992036439492,-0.049929721271405686,0.24042523885611636,-0.10008476843239614,0.5665415543945237,0.46239612903733646,0.16637253119398437,0.6119497384586693,0.06933285974818325,-0.044906017094835445,-0.32073232649396916,0.4978016020636231,0.08562102656955593,0.15071832577706,0.47471324109703666,0.0061069071208366965,0.054038084422548614,-0.16317492296608785,0.03778466877217094,-0.12706541045199174,-0.3836844187128646,0.7125774360973671,-0.10729532299300883,-0.004696596837538553,-0.2539630895282682,-0.02204711641199349,0.013381019909251423,0.6499371166122285,0.18809041915135125,0.38523351902894304,-0.049863776424082885,-0.009877955784356358,0.5577882177022998,-0.08215684017005263,0.2530835803054774,0.6074268905764617,0.2612375759772773,0.2413909532681433,-0.027246995858784418,0.21152554744839164,0.009785903172213456,-0.4212705590298225,-0.32119454290755767,-0.2453597083260148,-0.2281146777483324,0.09961795698230465,0.024359657894819975,0.38901760436904925,0.0008587986704074661,-0.46979297353621335,0.04756720594953755,-0.5582128092312867,-0.07932919895833512,-0.05097325727040207,0.3079494678227357,0.3519930976404819,0.39371016816233106,-0.009018567071383288,0.21493510041646383,-0.008776380042801233,0.2539878214288781,-0.006137801389915564,0.07713944393668026,-0.2392904557204858,0.4716533670744814,0.605918116899975,0.17216815969516702,0.11095351282832454,0.0597529391895173,-0.34392295440066306,-0.12718076771125197,0.13261638907715678,0.152233892508472,0.2153503221925348,0.38825198627697927,-0.19338484100687006,-0.04677314885169238,-0.3684846743764102,-0.033968230819871756,-0.29217449214800645,-0.12059999238638311,-0.43097946721441793,-0.4083073605744895,-0.8548222078263139,-0.7866687153729861,-0.35410081600775156,-0.2733393569818469,-0.2220194777866371,-0.34148019845024064,-0.48102354680820614,-0.5646316603793483,-0.28924665603212335,0.17163196892608895,0.15172352485142657,-0.35704916201092973,0.3199942257821266,0.0565677426105884,-0.16466899565888934,-0.28414171158025664,0.050591954573368035,-0.0007827801164239645,0.0911368556941549,-0.4491598428382228,0.11644823693980773,-0.29997654289175274,-0.4179577110293665,-0.012449311743006496,0.08203402649700263,-0.22721907294429608,-0.031365169799713044,-0.2683235152410928,-0.3399944287089331,-0.2929402016139299,-0.1539210654335086,-0.294697554576358,-0.3288802146156886,-0.4307304291400006,-0.393164114542962,-0.4700040803609062,-0.4029604198844332,-0.2647485149981564,-0.1127972784448774,0.22839007583009932,0.01160848011130395,-0.1296135943233524,-0.36262929493871826,0.5296306538706025,0.3567365786681573,-0.06798311043530703,0.1303394855155299,0.13741610098319748,-0.5131720650630692,-0.22459766703347364,0.07076224917545915,0.2080565155683149,0.2141065487402712,0.3157454979466966,0.10607054836345839,-0.18828614271012767,-0.25264701193686595,0.21010981871633977,-0.20506526685712112,0.004442566322352784,-0.3293990428956433,-0.45634637132062006,-0.07021672278958348,-0.1705804463591398,-0.11210513964368798,0.16847932448141434,0.08412286876019931,-0.3072104590665502,-0.3319588260297957,-0.017198616017897923,-0.3121638409017275,0.1807150551273177,0.40554665541276336,0.07318402749175827]},{"bias":0.6289156809757267,"weights":[0.24876570096239448,-0.2764296339203914,0.2697093687796344,0.045172280399128795,-0.296758545950676,-0.03137178594867388,0.40362270921468735,0.07904916070401669,-0.11678595041545729,-0.030783638590946794,0.15375523696032664,-0.047976904936755695,0.21920466624821225,-0.14972183030719557,-0.27245358331128955,0.5808199439197779,-0.1992486489471048,0.03878035551557938,-0.15752516058273613,-0.20101047648737827,-0.10276011051610112,-0.0038483598424742618,-0.26847813844991225,-0.02911589612873892,-0.0650476929731667,0.22716394695453346,-0.3274813763176401,-0.2930251525249332,0.20052043038109937,0.009347067680209875,0.051832494946817555,-0.38744671642780304,0.0969432635853688,0.098547166135783,0.2443852205760777,-0.0427705926391255,0.2826752095648841,0.2091779396999627,0.14358837247224185,-0.034072406504491094,0.024941477091849493,-0.05872716390743889,0.0037097415307303476,-0.05369320151982324,-0.017610587448557168,0.2108428259179104,0.34256906087965433,-0.359134480558428,-0.06534012554785376,0.057844719325401306,0.365453444938759,-0.499188660721605,0.3779512851809462,0.03171618158618609,0.2221158112709721,-0.09994253787832956,-0.08153640036471188,-0.31036863615736365,-0.3755591995238016,0.016677362223466236,-0.018471073116044314,-0.03712467121955564,-0.4917060635025252,-0.03271321843942361,0.18359517603861586,0.6283185597089528,0.39302322085259744,0.2133440036589241,0.15937770230616874,0.04687829592090957,0.1739268846273854,0.23946906070003068,0.15190149847549853,-0.4291634624825255,-0.49283052390127724,0.3404025786165165,-0.017186420457255474,-0.46055129085725033,-0.039778939066738815,-0.1693277043062946,-0.21901015213409733,0.1546219080531349,-0.16429303392457464,0.23929031721005836,0.3300038011899839,0.32615505151140195,-0.1075405025233825,-0.3426765711822857,0.33182898643748027,-0.1726615955362109,-0.06593807157988898,0.443577195498567,0.5206631008879594,0.43343040908626157,-0.22599587966925372,-0.17311285107799326,-0.0711036636670748,-0.08393254985078238,0.40027539608452445,0.17366452806491803,0.07339925046597745,-0.0265003961229598,-0.012723463863024264,0.5140308283182026,-0.23737544702450986,0.07895488994673541,0.1802764295858808,0.2675000990371617,-0.0029860333656140836,0.11972728107745449,0.3324457404669374,-0.23018566728569567,0.123928273950393,0.1958979118304948,0.2092408729561915,0.018096516579242918,-0.11807552893874504,0.32959874629211233,0.14239994607269865,0.0593172552092908,-0.22543902701157628,-0.34887909075427553,0.16275152485647093,0.12258797905802353,0.243153105813234,-0.12140555660985763,0.14954728527645458,-0.09596118281504346,-0.3765141110919222,0.3350189806503551,0.5074072618330681,0.12922697816464226,0.017596781616702743,-0.42229140050245306,-0.1452934136648229,-0.014659453018254491,0.08026930542843964,-0.17954431769762363,-0.15666951169259846,-0.010117354802787304,0.21872292327073714,0.10182589191632967,-0.2448133480568493,0.04850004412958424,-0.035551024025282596,0.2955365773358724,0.21406021165200234,0.04211056335203724,-0.18821581201741255,0.06368820716575121,-0.06427093380468628,-0.11574613125199536,-0.16950368520845846,0.24695082838016846,-0.3037756204255527,-0.1242478446175459,-0.5918871728160893,-0.39326668142001436,-0.1590640405469717,-0.532269165456282,-0.004721483548545582,0.29485927485705676,0.44380991593469055,0.2555910602534692,0.20129851079502237,-0.20908311542472133,0.20030898944752837,0.22375547134911364,0.06292384536936879,-0.15483061069001755,0.12970585997048767,-0.0371151718154503,-0.2983306031523114,-0.025941681563530477,-0.25118314294049077,-0.0850401837966247,-0.44970605200759467,-0.2225082601727798,-0.23535310140657717,-0.021996826493824628,0.29959652963406774,0.1688232244022966,0.7454861114915973,0.2978588153346011,0.04234102483622002,-0.05426932937221253,-0.5885432109199124,-0.8128665052274487,-0.08704691657512309,-0.3989079397764035,-0.3331889446207196,0.39324164643220955,0.18061888488189928,0.4891603508410029,0.04647893693119025,0.06185248570736345,-0.003448494767468746,-0.1838111157937638,0.12988323331612553,-0.3002179401392266,0.23758417251481317,-0.014339323884094706,-0.04266710469634288,-0.1507694646258621,-0.1388226831346749,-0.05192310232475965,0.3883795622143813,0.1326907829902691,0.29679314599327666,0.2954664054496427,0.5732098303578803,0.17871224077342138,-0.10837371737058377,0.11130296931095479,-0.5283187358563561,-1.1989169094332492,-0.04587734764735816,-0.18871445818744897,0.04546140986780404,0.27036871478240837,0.35619358932339346,0.08443070410317506,-0.12284449440725602,-0.15956286639740025,0.21279326353512407,0.03411297450943456,-0.10916120290560202,0.17719517671348084,-0.9914520229568569,-0.11612233925498341,0.11112801719301232,-0.13910769872677486,0.033582104149290484,0.15665107393476244,-0.4108295346080684,0.08273894066125242,0.4189651123219006,0.9096375608463617,0.45601405050857396,-0.17963570100936332,-0.4868581576331067,-0.271963988279963,-0.7287325617592578,-0.5094568126614846,-0.07288019912323149,0.45914963871058406,0.14473177207336838,0.32202834546797743,0.29090576841735527,0.1344144768475294,0.5004847239524427,-0.16891069007735185,0.15528330445325345,0.2561168044499591,-0.08397659844414479,0.40626975829222933,-0.24247240734411268,-0.2957099946196835,0.37480230696049105,-0.3157468831797687,-0.14263147048285416,0.24217084294635596,0.49219821355608034,0.0005239902436701697,0.5074996256663161,0.48912737848492377,-0.03245559890657097,-0.14695621798393071,-0.6767421418267046,-0.25849183229628686,0.045410729429936826,-0.37110661027594705,0.19050290566672648,-0.1538908703636071,0.17129360944694896,0.07963798705245707,0.2820946602303779,0.2888433202197842,-0.31599494835337144,-0.04428167615011693,0.28607959059687954,0.03507485909709033,0.08066400215447282,0.08553407790689407,-0.29167590004963084,-0.16640339837443446,0.18880036263851907,0.00017101632384136092,0.3139198055491576,0.08807262362804368,0.615127669117588,0.3357261180126746,0.3613084499385526,0.2920663717320078,0.26365697852872877,-0.017461169715762444,-0.24146109618866254,0.12049418727140249,-0.048789121713437814,-0.24338313992868496,-0.05773254629722692,-0.19058926915515584,-0.12084068192962501,-0.005598539700752127,-0.26952264808088827,-0.002910930531338692,0.011748554616658158,0.19070135825313628,-0.29443169734440744,-0.10382875642411168,0.05270939831623359,0.02408468671980961,0.11121027568723167,-0.3250679879648816,0.7972717228581837,0.37204638703344584,0.3090240720308209,1.1096202150559642,0.6727521331914921,0.7478456777480509,0.43398548819803723,0.2314815894773491,0.1129909813326039,0.04815513193409611,-0.20506318673008064,0.5015654212946733,-0.10622557753992623,0.017138263907546546,-0.03244205472611989,0.005669831220777291,0.2223344341211752,0.0673483822353941,0.20971924147689902,0.10507401386671567,0.16391637695739564,0.49569567702195577,-0.08497290041608115,0.2578261258634121,0.3202643839634663,0.05239073706931626,0.02158167028783123,0.11519178335761186,0.9243573075880063,0.6074802955903335,0.25698622487119616,0.509168444988909,0.6877326438947917,0.6063246426902955,-0.22386976951577262,-0.6705401821697519,-0.746734360406484,-0.11925788707461298,0.2832024336930827,0.6109833104672215,0.216028905869748,0.2069154893962926,0.4427939747845512,-0.041373900576186465,0.1391412889474911,-0.023238417719580885,0.4275510981335403,0.09215350283512937,0.4447391598858007,0.3265724523237691,-0.05543864813322822,0.08289990932425706,-0.07738209043988764,0.27390759979269,-0.027075290118938927,0.10099746550647663,0.29078517023545425,0.39098857129856407,0.8245149600369118,0.7615055342434464,0.48248570112956307,0.33920874610294494,-0.646996856375392,0.04277382154927741,-0.04150055702300495,-0.0979750475535914,-0.11771182287785452,0.5487586109559116,0.2764645668806178,-0.09961036646045408,0.0537736985159684,0.14367285657567566,-0.31460798419552016,0.5751259569981777,-0.14524357372659716,-0.057171318009852576,0.012592065828398644,-0.08322503184899688,-0.06202152852589885,-0.28802911879142806,0.0211452054908518,0.15602655159075643,0.16194120128666772,-0.04929798525558996,0.43192766522407594,0.695245848486368,0.011006618571834473,0.44962863455796026,0.14131002880057209,-0.6231140240730445,-0.5693705482366115,-0.928127281145598,-0.1185393462189301,-0.015697843508614917,-0.22048795324892792,-0.09621061484248404,-0.42751807549349025,0.31698578129267774,0.33935076292007615,-0.09998230289616256,-0.044729744854621334,0.47820060237743184,0.3154388560067107,0.3686251522032842,-0.3465988070551772,0.2440092604762564,0.09497927594929934,0.15453977380057718,0.20240557870780465,0.21063953445929864,-0.3178175949365261,0.2322815228249183,0.3772995829080994,-0.45144211541445123,0.16039055118428291,0.21697835092013815,0.0378993339770031,-0.6020497008252463,-0.4955642231167864,-0.6524308031279127,-0.7077197985761348,-0.7900258996285459,-0.180173095781199,0.2531444839057059,0.17827747560144655,-0.5327397672722253,0.5204160022631363,0.1419286050841746,0.47397059414091575,0.5442439293919986,0.707104464406615,0.11817420783714852,0.48611314060622174,0.11660527236966807,-0.11950385787834723,0.2674225769781818,0.47150117410296155,0.2834509220177088,-0.27780832522264376,-0.39643329327349247,0.27301756467071375,0.20316614732829574,-0.15833336975099832,0.2613294011614818,0.4822468570298713,-0.20724957008821912,-0.16547049471642689,-0.4815992827432499,-0.9687968506181388,-0.5632700719764856,-0.5643131960554314,0.4376837439713481,0.4771586841955447,-0.35076383695613506,0.31687080216267377,0.10283467325254653,0.31673514188383894,0.05427659681004387,0.05088652319245613,0.10704926149489935,-0.12674674672608854,-0.2732942209608336,0.38068800341958803,-0.13985190098173916,-0.0724917677787048,0.18956507835370306,0.17926476707248987,0.01258615054556673,-0.2661442506448455,-0.047401012773596096,0.2739327273268596,0.010534047373897517,-0.2124291797074098,0.2605146105512474,-0.5742103645046834,-0.2830922349609883,-0.46692380579201476,-0.17752677668375688,-0.6043239330729883,0.14984332874443962,-0.21434296901439034,0.2071613132646352,0.16589247486459843,0.09900346387981138,-0.2678271610089316,-0.37349128686211286,-0.08615065201466261,-0.19890950778751537,0.06924249808209564,0.3882959957625845,0.5292465476474414,0.1033618258467565,0.23517811556406304,0.12304865024755232,-0.2055389048734506,-0.18970774235066165,0.2574135275906305,-0.235235952971311,-0.06244984446515994,-0.08740030495750019,-0.2644234024661747,-0.09341280060187221,-0.4266922736556599,-0.054963068483878934,-0.21135503076947862,-0.4190818808561349,-0.5280936592307114,0.38744882254486673,0.15262823618306864,0.2909880043655141,-0.10405616060753274,-0.19812921099116151,-0.21327357543285774,-0.3404610949242617,-0.7835717442240339,0.13146106540085192,0.19545604167843933,0.2049915641619902,0.28183751824932796,0.005509987783928712,0.2576897709638478,-0.13425720307861022,0.12829674367176194,-0.22800710195416937,0.17645957095059056,-0.3291168779994973,-0.3236942436717853,0.09870228138832704,0.3635055046545721,-0.5317499736659371,0.10185239702921423,0.4100132033123354,-0.14522100662369417,-0.013008520915187283,-0.41001931015994414,0.379968756566673,0.22563860026539376,0.1810854426623768,0.05144379159900283,-0.4594242074775129,-0.6765031685458034,-0.41529910801971237,0.06195408954815285,-0.3858810553650885,-0.2798224588959039,0.08237993328861666,0.21308579194980362,0.13428718495803574,-0.03631331772880452,0.6109126840129001,-0.07812991016129836,-0.5848776845160528,-0.727406286255442,-0.17285578473794994,0.11145429755570321,-0.12588161146902915,-0.007547242344532265,0.02367816279036583,0.1342569625888697,0.25180204133505046,0.1950370600437108,-0.4469284817548947,0.08538101376995415,-0.12222290572917574,-0.5306418687626506,-0.03838522588173676,-0.5153654129290605,-0.10764260092576063,-0.05860486283746718,-0.4596193123782451,-0.026542962653602103,-0.32820109681809206,-0.08385416763209877,0.2707799777078132,0.16644406458362937,0.07319108474378784,-0.3442584534772271,-0.010865300949064996,0.0894554840047637,-0.5590286076575056,-0.2989776332867802,-0.5367959676870373,0.559231535273961,0.01721496428086078,-0.09260805659868154,0.05551913615197209,0.008605303553180448,0.10635575734918393,0.1993079093273125,0.4729729205294981,-0.3293033569819109,-0.5588607298699516,-0.5926359757040749,-0.16575604002253802,-0.3255890784429951,-0.34927932459370314,-0.041860945217321276,-0.17692299289730376,0.19183195428443142,0.10977754573199013,-0.06473232280094951,-0.016573281182597082,-0.1332025338585178,0.08418427741465469,-0.1236184681726983,-0.2592519190816532,-0.2022822060392973,-0.40983541509585,-0.13437641911697737,-0.20767164798706889,-0.15194100777276198,0.6852800308178786,0.017973673203310683,0.1702156368588533,0.17763731505456162,0.17224799769092763,0.07148499984971424,-0.11519845367305791,-0.5162101292564406,-0.3760296290115248,0.0870641241641996,-0.2351820619373694,0.12376949566334182,-0.11206261069751554,0.11374046973327018,-0.2763583386837255,-0.061043872075522414,0.01368239034205167,-0.20812698049750336,0.2950382231113811,0.2201848366142561,-0.3426136191313465,-0.054073876677846314,0.19564596677634918,-0.30320024536266454,-0.41935503804579777,0.22972875944706042,-0.36191291165715295,0.1698827835197221,-0.2593481889183537,0.11983026131228203,0.33844677654107663,0.20746240561926932,-0.3146110628105098,0.5352342406020719,-0.1182196599348906,-0.2674798935036549,-0.3321359236043439,-0.516794402497625,-0.15111948059165392,-0.2167733255205729,0.2506284635494164,0.4933701127770061,0.07228592234560077,0.32407251055404057,-0.08735173052260845,0.34553369274022305,-0.23623448889702559,0.16503463732078671,0.0772967526378731,0.4808810724255939,-0.2257354988730514,0.10503466071716705,0.003408086874659016,0.11000446519413336,0.2746955290052099,0.11617013290453582,-0.45777037221486094,0.5808924915521647,0.3085473544518086,0.3784788032942679,-0.07285531502479732,-0.03478404525992377,0.4079155862234552,0.16117014942756547,0.15392077903984153,0.4047295819700611,-0.40684099873224544,0.2879969767450855,0.1946585368387873,0.15489975343657933,-0.18296954832905293,0.344017593267603,0.2886420761545499,0.12311353906989098,-0.1031115516865005,0.2805856432920943,0.33347708778455853,0.25190468652484316,0.3173956562331607,0.07424284218595566,0.11580754501470829,0.06758203469836938,0.13314343708256932,0.028057792251052475,0.37419105993161644,-0.19494310286606667,0.5645231876152353,0.09942482988444694,0.36539621456332116,-0.15227443328995086,0.6354476313861241,0.3306459656493848,0.5669123408981682,0.13983407591097125,0.12002575978411374,0.10988687993723932,0.0821916904453967,0.33347152465277274,-0.45238739289484015,0.05411340171038865,-0.2443189900368452,0.13738541584461927,-0.1596038662828505,0.5387507662332306,-0.10252717828067641,-0.00008316951182981332,-0.033212071133133896,-0.029231956478558304,-0.049068948614043026,-0.31722158206717543,-0.38291443215507026,0.2208944181403827,0.3843105200436167,0.18169425461385505,0.3241345020056141,-0.17444662629237395,0.4483573983808366,0.3444198404446151,0.915531554319316,0.7221878507484063,0.21495839657289215,0.07357423940769127,0.08094412294757317,0.08955430461799968,0.16410444224419554,-0.16536838042103374,-0.10302510034051986,0.2652284970972687,-0.279650457125778,-0.27938240541455645,0.050532760874678694,0.06469203112646937,0.05307113014472028,-0.5711337750156721,0.2879926054738462,-0.04089902682850758,0.21636116804343236,0.006301632699371205,0.30961782530922544,-0.14469671159557676,-0.08380742609326494,0.2770829556399642,0.4345640089228845,0.0037366119542507144,-0.08966225977559264,0.26037903957531655,-0.38947833311582053,0.2305324260499781,0.2619293912132437,0.011662620762802113,0.05141059850371673,0.14191817704652487,0.22210116400297963,0.16011447213492405,-0.3436619621546318,0.03863105185640355,-0.18331155840617916,0.22120479432245096,0.09169704816304147]},{"bias":0.5336660689376745,"weights":[0.6518103442310045,-0.3453439379421373,0.12462538046141465,0.07686500577256083,-0.02015231689438224,-0.28078246970350546,-0.1955294282330821,0.11495105650586386,-0.11756373623696466,-0.22390080390808484,0.2691502095355342,-0.08188648583988349,0.08744043849098186,-0.46783311300290126,0.1567517778215309,0.07401914087434609,0.014230758883059025,0.3724517479228477,-0.07382907361413042,0.26652643945999444,0.11551315345180531,0.004389110176513593,0.25986222666688263,-0.17465138474168876,-0.5294381385513892,0.03313557834674915,0.39779227374431986,-0.2598441941663623,0.0798004548996687,-0.050386463679994144,0.14102124616814157,-0.051939149697621666,-0.43493382656015456,-0.027113110680753987,0.21763593781118593,-0.12496251459408311,0.31370926608637345,-0.28902659149596854,0.0014397539616861684,-0.1081720463353694,0.08682695160642243,-0.11725372331924128,-0.2624555542005353,-0.06830872782382814,0.16077617144145584,0.1649298272916167,0.01596464319378772,0.22855122946428152,0.2024827021613834,-0.055205948079331,0.31130160065838886,-0.06455747573636472,-0.021516427863389254,-0.29167952039279044,0.0243342910738041,0.0405432953654478,0.18510232640740773,0.07822874995569389,-0.39940365427173674,0.07774938239405553,-0.03449590675265071,0.15354204149409198,0.2828946489234065,-0.06325483324305496,-0.06099552861367533,-0.17931444906865268,0.24451841247166978,-0.32788986826574995,-0.19603430021254992,-0.0725562985599429,0.07026317708738937,-0.3848422798295504,-0.2261566364211236,-0.07445513414130818,-0.2299526041675716,0.1830418869725882,0.47346954059234736,0.4535384528284949,-0.443738753605161,-0.5834937321744832,0.12644472162704418,0.09967722875686984,0.1972916234129419,-0.08149474603123963,-0.15207977763687572,-0.04041140805929899,0.23480564674052098,0.2406757150311023,0.04849480662254975,-0.1237476926376226,0.37597818831601887,-0.16298738230341642,-0.0006410590929882417,-0.21826248153265906,-0.06719683953441165,-0.029457548553316965,-0.2572334962401776,-0.2898078091526355,-0.2344409800434293,-0.20132915463844703,-0.3078771124406705,-0.36468569099004605,-0.3062547357945487,0.007517299733368597,-0.1812250831051274,-0.14526533896037597,-0.0841302876174218,-0.29362062057150995,0.2635263611430042,0.3312364116621514,0.3581893170097222,0.15386120649054646,-0.0028087818839897714,-0.11549034986334543,0.18265410621340075,0.08240981275847128,-0.05708781394814594,0.014843711419481096,0.09060308909229597,-0.04040292575286326,0.2545034077905781,-0.20846589092499265,-0.05873341617633025,-0.23181382561151387,-0.3169503430173322,0.16919514225199941,0.007775189364593309,-0.1881987714094446,0.2684998262383135,-0.4155914257078579,-0.30674571016104174,0.30817675005886186,0.4741127843113443,0.022862645079691882,0.1353421363200093,0.016595260162714,0.5444344558774971,-0.009141537015706419,-0.14038677544643482,-0.0030264006151507297,0.4168193958854924,0.038102096800381936,0.06101758505600832,0.15172507976539149,0.24651096610792245,-0.22576932916725656,-0.2724383919638337,0.06919522503183148,-0.30674829241565865,-0.04288716955025616,0.12806085809794515,-0.33228943562370095,0.021919211135324957,-0.40646994597927405,-0.1556433320016081,0.11994832396155646,-0.08041235782994868,0.35927404833916127,-0.4912220777345589,-0.4164401309534338,0.412890801998834,0.009541392604966899,0.14291536380126954,0.028588018113662492,-0.0007547305048014205,-0.42828573978006557,-0.311819459855403,0.04331940850004767,-0.11979212674001853,-0.15132816772287092,-0.21983695737224784,-0.16661267299488772,-0.18542932956293892,-0.09457821446502475,-0.2421684724259866,-0.02745953119853989,0.0818307539731792,0.02551157273081325,-0.5990816022812062,-0.8217134279623662,-0.38131832826438716,-0.33034658346713525,-0.6057816480376964,0.09769154586053014,0.3174492595122371,0.46762998579201226,-0.03344537095421793,0.03686160524881192,0.45922212119302075,0.6636289401492992,0.74039187281762,-0.04480772161043531,0.6339449566694761,-0.09344788217612787,0.16432886754823575,-0.04834693808981481,0.2561668464578353,-0.25847272173460667,0.10075274672247514,0.0782302368838232,0.23962795046267785,0.35422366173630276,-0.6415385732741686,0.21726446634872262,-0.06592940392140928,-0.4477553726587114,-0.007081914935145664,-0.47153449463208763,-0.6249371241753233,-0.30912091928441443,-0.09062305269849744,-0.24345732265232087,-0.20591588233475167,0.5291756381248359,0.39232044362246843,-0.08841922864304319,-0.17923181165787117,0.5757970906419202,-0.4938271724925385,-0.18571469320559633,0.13439274507986074,-0.2562203796279567,-0.1414320441503899,-0.06964925726706812,-0.015450752479946525,0.21672170055869566,-0.12156057173207198,0.17562181853036948,0.3446411255800085,0.24623062259416606,-0.1358585946139047,0.24184025699983033,0.8394170524092247,0.11977031252132998,-0.040266796443002274,0.3809113443743791,0.034258458547790666,-0.007376654664295065,-0.5488568851512039,-0.18898287680530282,-0.261478210798527,-0.07822245687229852,-0.0001561662479043852,0.25340030831097143,0.33097960583130803,0.40862240222322477,-0.5991005700490103,-0.1417929677922991,0.045763689217884825,0.1877388893493341,0.035768135058151705,0.14647542426185503,0.02225894664168946,0.18346040432774605,-0.03407556869802156,0.13442585184903016,0.39170684045396753,0.6798196119072117,0.16327654488460214,-0.37396353190644266,0.19870253918555827,-0.01399056989202842,0.37825049743897443,0.1834893182379155,0.3233946039127653,-0.5145044727773362,-1.102988624511634,-0.26522715290864535,0.44271614574248236,0.46684502583994497,0.04863045337479068,0.13467150119863977,0.16473326560361154,-0.16716686250471205,0.5472828409505971,-0.1695755484839434,0.04425940479773429,-0.08460295316330908,0.4628135412350884,-0.28527001394133217,-0.3101964897165696,-0.009665684313571983,-0.06164724897729499,0.0700750898338459,0.3083906855527686,-0.15763190473902244,-0.37605305946618034,-0.06926585089036888,-0.16645317337929533,-0.19380222516512316,0.3704266605457533,0.23724967139519731,0.7627520800619257,0.006812505980752395,-0.36748558709814955,-0.06029662298594937,0.044839926071920326,1.0266802568775624,0.6582622384954967,-0.04861646034371241,-0.044774705004256336,0.12880465908921873,0.7432831041531723,0.7714037634739181,0.10379003546314618,-0.15072635186417047,0.2546072115582974,0.11450076918117702,0.14415259946448108,-0.24508262729969016,0.05044640373688573,0.45893883572000643,0.04000017196699686,-0.20468751126052412,-0.558525452710281,0.17476134711840127,0.2296184636460426,0.023867393966551385,0.36201484546288976,0.5589267082829491,0.2629203276183408,-0.2936403594556083,-0.3471864643246114,-0.41739523793938527,0.07146208738205055,0.6853212573124635,0.1350302570115006,-0.024641834041584515,-0.022267262733847746,0.2917160920734626,0.07635472010914592,0.4141908868830493,-0.38680959794946584,-0.050035589540445735,-0.06885404656160274,0.41713182464647425,-0.12971545088415345,0.1582595954895514,-0.32114107227970723,0.5480995445926978,0.07127735749985478,-0.1262250012922848,-0.1578467962755184,0.12442779663597153,-0.14970905025005427,-0.14048726234831949,-0.06927186950906834,0.17344299971915464,-0.17651485850728854,-0.2957707823220382,-0.6466628464483826,-0.6058317049081319,0.25300974093879247,0.0807242460200196,0.06579490463242954,-0.5928931197237118,-0.10134204957434574,0.07066785261734433,-0.14594388098858577,0.08892229148504685,-0.21214532821611987,0.02024346396649734,0.31375268333023026,-0.060649366823448514,0.4043198519696792,-0.4397494042488413,0.09791724065270968,0.21313885795093776,0.76608061598815,0.2849096333012554,0.02390272518049326,-0.209657221382291,-0.31876624285709976,0.4920251904834547,1.03096969604153,-0.021525289765048944,-0.3338431625917724,-0.3532031288186739,-0.9132319558949281,-0.7053530352835368,0.13907939230881933,0.16112553738184363,-0.04469638443370294,-0.2547971947261271,0.1325072162844663,-0.062045475875212835,0.17502252116496472,-0.16227940099450278,0.04090174028882948,-0.004869131392192447,-0.19903588712546524,-0.46791537408716977,-0.24654372595250607,0.19022881312240114,-0.03698635263098717,0.022342760428475383,0.05973768118882148,0.19560346336807194,1.0460696696863254,0.27270412819137896,-0.12716842033912343,0.20296773893652797,-0.15638662577465084,-0.34386265035129177,-0.17054490380879242,-0.6673583251866801,-0.9211301717054732,-0.7239369123448061,0.20073511700888866,-0.27081339792600106,-0.22175962094408588,0.3907240655689003,-0.055122050896818514,-0.01949907588317853,-0.26581424233534123,0.08505965054029908,-0.404272983831126,0.056026514609875025,-0.08038949252199264,-0.011508992485081157,0.16325616502823928,0.4179107854047325,-0.2708392598385831,0.048929889038352735,0.5331709174084331,0.10862788685178412,0.6275511141235649,0.5664216082677949,0.1605753456961639,-0.5757475806068315,-0.24649975395993573,-0.48509592836225696,-0.3288793117244458,-0.7774750337009144,-0.6305306114471789,-0.4396122137751211,-0.12348615219935168,-0.047113858246716274,-0.11093892289217808,0.023400099798805196,0.16953012780679352,0.08977697681845771,-0.12684484222942083,0.30969106724599343,-0.3562438557462261,-0.10338220132206907,0.18897384121375943,0.2243060023279457,-0.07458772324025631,0.17448816448450089,-0.06134841306794203,0.40626752343585004,0.08936172294590561,-0.1794085004581668,0.37802662922432356,0.8325865346824287,0.7269489742135773,0.24274090748672414,-0.0830939661877543,-0.767255034321704,-0.44197917536312376,-0.6162736266763025,-0.08038743800163982,-0.07643228007925837,-0.37900011507819864,0.00012079948163764285,0.27819793155398126,0.19496237695216428,-0.048058954493989024,0.15307254488620145,-0.21548013458173085,0.2619741060451973,0.22586400706786636,-0.1341788286624755,0.22903320331008342,-0.15473503476195197,0.10446112579666078,0.2958320872082065,0.0912798118236676,-0.04921197561600306,-0.4018698486620225,0.38492470461832906,0.21974899335230486,0.5368412638014004,0.8882946016624882,0.7425320381277493,0.3290299466414031,0.09830072751379142,0.09377217784837101,-0.360552835565666,0.26997960001982646,0.5994592829017922,0.38084995446111275,0.26147625468148816,0.03657923845157151,0.2977792205026898,0.16469664289537145,-0.27106290269425043,-0.11212608909833813,-0.06599338535727102,-0.07867315919085556,0.1066600529451655,0.32932570802616207,0.2324840036091973,0.10942547465674579,-0.06387115626906355,-0.06530080113832235,-0.5822481613048188,-0.3645482398756313,0.5088434161103845,-0.053877182056746346,0.1446573867277596,-0.36260326442630547,0.14148396241886588,-0.05913733541240079,-0.010703016587954566,0.24594215407105935,-0.19535968057111083,0.4397451172693501,0.38163691147984075,-0.08726948225206801,-0.41040325174459147,0.14803499752660357,0.17973185532769267,0.31318517951190467,-0.2904633677567391,-0.5009018259083944,-0.29932473550586136,0.11373181882049727,-0.09120543724395389,-0.03887804803083953,-0.13766837210347846,0.15346350660547614,0.024678476387634873,-0.0034935857680043845,0.2628364854920287,-0.47953824748480683,-0.20527233003430503,-0.3723260124688795,-0.25716041076343743,-0.6541434461720728,-0.24742095021484448,0.01502931804898866,-0.2229688041235673,-0.5722264226815332,-0.7855672222443374,-0.6173756740061144,-0.28802367688483754,0.10618854270921153,0.15936816968660114,-0.0126512957846805,-0.10636072633960325,-0.5380731109056721,0.3623609294285358,-0.2531029556815082,-0.5533577141038712,-0.512525051491101,-0.20723039396872286,0.11681817525100427,0.07003711588212935,0.07230183544258277,-0.21308563634132346,0.20379972499138801,0.012833496434106193,0.11489564472920423,-0.4693668474128429,-0.31453876185429147,-0.3669684561768306,-0.34765779147326015,-0.3549572671706595,-0.10627727762877603,-0.3829967152897595,-0.22526019030967986,-0.3336687624776771,-0.13448604638323255,-0.033436764716877336,-0.3311912422644026,0.630037121530361,-0.3462648451901026,0.11220702357314191,0.1005624495639274,-0.038265990474068735,0.40572853049258484,0.06069514532113211,-0.06413472249491486,0.06665000353578786,0.1152862760388715,0.2670435586478561,0.10279016972829898,-0.14515154141311845,0.023696319784238997,0.10428323280230885,-0.3698877322325156,-0.2563009730737571,0.052218214128241056,-0.3206203927731653,-0.2710397077473237,0.566588827120844,-0.3026449685795836,0.09856204387306945,-0.6642331009433409,0.03657179017501574,-0.0869435365820253,-0.2688444893148538,-0.039703381021928504,-0.014701290139395602,-0.16283187333930346,-0.15575768308770482,0.3563304716547474,0.20915676848684467,0.28271701171706887,0.21628839984460424,-0.2992531022588352,0.09734788099134506,0.07138710668539501,0.13262175473695,-0.12527338578365743,-0.2488207824062556,-0.04905311244501703,-0.5122361341697044,-0.29465453094584126,-0.018554871496554007,0.3694517015240403,-0.008412447276515926,-0.37266386447603506,0.1862980587318005,-0.11533369049873975,0.09202703507724047,-0.3799421735205209,-0.1535523562342989,-0.07815604970978492,-0.3986422347205603,0.042953471844610444,-0.1203673325146904,0.12154614270770085,0.0345851024568002,-0.06320614187218664,-0.20718375303826553,0.5807156730225231,0.12267755330062871,-0.2670023504179977,-0.5067435003175567,-0.11124144947174613,-0.3008016917544107,-0.07878854350807767,0.570456473932912,0.1485145871390878,0.07427769005062759,0.21096493148528644,-0.202480795465739,0.3110353750389749,0.009218179970916876,0.013397682181589063,-0.30224583441389996,0.7504881280524413,0.5639627406877343,-0.018785129261690993,0.51605028430105,0.2881058791847832,0.09801233486240168,0.25840002137989987,0.7364665665373173,-0.021955833006705727,-0.1595668528577261,-0.1354392063196213,-0.15791513356099468,0.18095546144124988,-0.37078382281646116,0.36529930015193407,-0.03111273895376942,-0.0027505101893436925,0.22199389749827483,-0.24602360588808855,0.02140381233766675,0.3424270203492294,0.4433614809373196,0.2374530905950739,0.384016883797005,0.4902099205764145,0.22726347652791648,0.5400991980611813,0.4367421652072948,0.3111751764876287,-0.41573148529157544,-0.2730628462325264,-0.25101351612686174,-0.10323729113803115,-0.30675724120421716,0.032851675748292467,0.08868484432738837,0.2565332411176321,0.10883874332907342,-0.3040183275245169,-0.5449138468438774,-0.22435053841809208,-0.12904698771815507,0.0038601175341070873,-0.22400819300673902,-0.14126940925295153,0.24723445383521417,0.04182998354857167,-0.1656544815438489,-0.11664597829803824,0.006639207600243951,-0.2021390566013223,0.030116942989168408,0.2913654634242602,0.3726934736984561,-0.10455249425672036,-0.005696914565160034,-0.22394607632694155,0.1583551139208636,-0.029663601971207987,-0.4750792529280989,-0.021920624600017743,0.0167478478647622,0.4655662987437764,0.24295022544673822,-0.16843454023801388,-0.20178543312986874,0.05953136037416702,-0.10532505442827063,-0.12365389993620277,-0.45469925409751616,0.6876327438803126,-0.24275802564807236,-0.26204130907232565,0.11999590842363735,0.2103554365846018,0.08038164411361019,0.2640575672655056,-0.06655975746474409,0.10903948939302048,0.1092373179964312,-0.17319579948628686,-0.1708078463639381,0.3654604090730282,0.10849779989026356,0.1854040725823348,0.06480680948010062,0.0957713261123341,-0.13163286851292694,-0.3396333089247105,-0.085091343614501,0.18004421448845057,-0.0981195992183299,0.0607156468792823,0.044154526795481715,0.09092740744665104,0.19511104782162897,-0.18309899954621917,0.046923509855659205,-0.11161930758195619,0.05866786177890996,-0.0002402355894446373,0.3852599705569446,-0.33940632167893153,0.44269449822604656,0.0017893384986867507,-0.14334556631123027,-0.033760465371112026,-0.14290438282445156,0.41890829901080057,0.3675458359134131,0.2585988313823415,-0.2588292208256423,-0.016331195720706206,-0.16694005897488706,0.3565010112638097,0.08601249481445515,0.09378334205676477,0.0025340508953271114,-0.17968773464066387,0.09450086301137106,-0.10730042504680412,-0.18904550107280518,-0.18043062445472613,-0.2038401480332438,0.15243428527503738,-0.07599147533377011,0.21864397645307085,-0.4596660804624359,-0.22907713032327592,-0.2690992342152943]},{"bias":0.131409994596237,"weights":[0.42897329983922344,0.30094993324019015,0.08141329372301698,-0.4655180036400755,0.40048634136716527,0.33589193131774664,-0.21466349375744662,-0.2274622609062741,0.21879497077316046,0.3383740014396608,0.3831845985259861,-0.1672827104727427,0.27297656207034987,-0.2210104005256047,-0.2743292583618313,-0.4573686025105417,0.2576640772167593,0.3564109636160235,0.1110790700186044,0.45302837699030835,0.05299900518730283,-0.08449768375915785,-0.2954304995170484,-0.1358502043876797,0.048558774714668594,0.37240288290195167,0.23881471017375588,0.5937016999038557,0.20120332925580442,0.292578782265385,0.26817037685153383,0.0036714629580577216,-0.04129727394320071,-0.028633730253204703,-0.17013831118432185,-0.06093582213703433,-0.1567666516097322,0.25643254742569865,0.07947249502681791,0.1092680024861317,-0.12481672491436957,0.24903919194649715,-0.14965328965554625,-0.07609427588780573,-0.12352760174673583,-0.15669448405750772,0.0022394733950003537,-0.17700389635908118,0.11038764633436486,0.11722808468182387,0.05272547961668219,-0.06103339418768883,-0.3388448966046174,-0.23464588223335645,0.053586265382667385,-0.5024893671895067,0.1843082665000111,-0.22193496286248168,-0.015231388232981166,-0.01847020668598513,0.1328703198889108,-0.18472979693933042,0.06805012275417983,-0.04806248736941424,-0.1881383858136931,-0.2203811779205273,-0.4863638189021955,-0.008010594898779732,-0.3515975666845362,-0.014871396253823093,-0.41484003159915644,0.04277201037706359,-0.04981598914783046,-0.1725543388151024,0.17240209488533223,-0.6056635450196297,-0.10585084322380964,-0.023624600964408105,-0.04956854675599515,-0.6491283285796491,-0.4174026211744148,-0.4344916077485929,0.03265473968349397,0.11288079417621096,-0.22613502549938858,0.16897380406347415,0.23272059562926492,-0.1887138553429395,-0.0029213227010830506,-0.4989799428885436,0.04876498309652328,0.382290155545669,-0.3991039400156843,-0.18817373999540102,-0.9895352872263861,-0.4549165467482907,-0.22754072111120865,-0.14923235556104214,-0.2593620287101243,0.03853249869776709,-0.4389303033744944,0.2662589874189253,0.07733933309366185,-0.5398918672231187,-0.34958535710924693,-0.08642008252318935,-0.15651756985405946,-0.3006996660978908,-0.06209244735877393,0.10801719462809463,0.3493392321591576,-0.4189174387138337,-0.6438672548004737,0.1526213881249229,0.05944983560281495,0.19612262009635376,0.058702470814187745,-0.40940682811006524,-0.18944327847549214,-0.2901126410956373,0.012669413128534849,-0.7882386639520514,-0.6561862745685312,-0.6409108789785517,-0.07818728306722443,-0.3509034680437224,-0.20197888185322216,-0.17391256695157387,0.06377039858174535,0.2443365342062568,-0.42474997142374615,-0.06821910624769383,0.2329077127213935,0.45419142021740216,0.4202226637137964,-0.5283686175726876,0.27758448030691873,0.09837804911099181,-0.08074998785741627,-0.1363187300351759,0.007007179704184334,-0.12247940766004224,0.1232837801377298,0.11988048794971348,0.009339920144397596,-0.0797416355470306,0.22860632913679177,-0.254487937033341,-0.06998011482215684,-0.05629035413397471,-0.19303583095803267,0.5092919263782164,-0.03354769543405447,0.27439322628229784,-0.09111261274178753,-0.46449669188878034,-0.4316165228577252,-0.20011514760540544,0.16318326405630096,-0.050457682682973536,-0.09259899312762403,0.5270215302369124,0.38020781645625645,-0.008787536173737832,-0.23033286375520282,0.11309368735273433,0.25455046200810555,0.2737656817961564,-0.14588816704538962,0.09116470992254715,0.28363829275869207,0.1465619288730839,0.2891708565879504,0.1965797672878253,0.28971983804827695,0.3034830649445822,0.249281270702216,0.6578247722632657,0.33699342641168284,0.14965544891428526,-0.025820476656810955,0.2892960859232009,-0.3018434915857355,-0.23935405669946294,0.09846157432962561,0.3183490877712609,0.15330127821563844,0.6150121508734342,0.5278844831086776,0.26557513210909905,0.28167720977438326,0.2524101719929114,0.16445946023003005,0.2026333211676051,-0.27285695055962395,-0.15113634557545677,0.18388379486800774,-0.1920240832126582,-0.16833691085087557,-0.3393680916759723,0.04029207575560077,0.5841888287805475,0.38668887057558055,0.42005895230954143,0.28039194406756834,0.12498958336455615,-0.3040488688583728,-0.378594551893115,-0.21573586127912575,-0.137795254362546,-0.025469788930926537,-0.33214267974353456,0.02400175067400202,0.3132996125706292,0.9667772209352149,0.2527391337638287,0.5391611801348514,0.07629902669611899,-0.029561416181521537,0.892168426494242,0.48921798313375403,0.05459266613193706,0.33235670481079665,-0.18792133058293822,-0.364425950169324,-0.02511097587511537,0.46825226469283077,0.2900990795847479,0.5305669421394811,0.20566122306482176,0.29345598145629936,0.37625337987217694,0.2856900597226287,-0.24063699982998102,0.13054289017772874,-0.0793782798088638,0.2134788582897988,0.23524045025351142,0.19277399750424368,-0.2889141217700414,0.5707426146607106,0.6156250539203529,0.8802252803445961,0.4663366082308838,0.538854600987546,-0.020132188711416955,-0.05408736694488937,-0.12565710151162074,0.3173716778853938,0.004635124632161366,0.13313509164017076,0.359522146507307,0.4234559259864372,0.11494445187411528,0.08191110052040373,-0.2502306110437252,0.13938984796725634,0.10600800001626794,-0.06761412998410307,0.3730592499793155,-0.0874698191569396,-0.28110230787368645,-0.36899997116099753,0.05434788610721864,0.06410859732777448,0.4073204531064813,0.4532566528198376,0.3592931050550069,0.4441649674616494,0.5830741139415655,0.3289834681726082,0.4253774479609732,0.47203023508703335,0.7332176991147946,0.23565555934831323,0.10396176164886127,0.0693488152899423,-0.5177391553976296,-0.10764288291805729,-0.12032782468553213,0.06786068932463725,0.18493339626051758,-0.20645075470164959,0.48519892150991795,0.45084546883624255,0.05773928927113582,0.28184234813837666,0.3870798391798461,0.04213588216881101,-0.04380746393788369,0.0074488874887694515,0.004575666118184481,0.5884061417167857,0.5869481984817715,0.7852022677815487,0.5057842779778763,0.6516766230565573,0.73270748349973,-0.12969816557097005,0.34565377861878915,-0.536253625622226,-0.12947535058602505,0.3642660759588851,0.35501988670527784,0.5404054111733354,0.22115143520802857,0.47501512585610217,0.13986918687199554,-0.25095151737332344,-0.2273561903239561,-0.3608915094834834,0.05459461191245075,0.14532061355574924,-0.18635189978199918,0.6166081694631615,0.6197843097811626,0.3926386501928159,0.4442209746965928,0.8512853425104587,0.6453171962234322,0.26277864513798915,0.9289220334063374,0.4333421274076179,0.19945817547110917,-0.09023547288105019,0.0547611582924593,-0.008508304255130378,0.0915045487800754,0.06738391356490012,0.07882478052909808,0.30988792147539074,-0.05079394571647101,-0.1603182176891773,-0.22260629784554592,0.047168681811525115,0.2648194038419517,-0.40003610456672806,0.1577376762027023,-0.267162576571328,-0.020742428428980424,0.39204285817802237,-0.1099502773679499,-0.09836523058271947,0.8739459755508077,0.42190483739740686,-0.18233432477339556,0.22833228651234455,0.4016575649425389,0.5768073103538218,0.02548130351469025,0.22048299404208,-0.4928533937217416,-0.10824631493816395,-0.21130910259746616,-0.354242396228426,0.006698065746022647,0.40919804106835683,-0.4113416454539036,-0.18250870747922,-0.11940268498945533,-0.4682872531023068,0.07383031724703182,0.28741763956858735,0.21781228303125189,0.30006740785514313,0.6526283289028209,0.12542249116465146,-0.40903377031278093,0.3586463036490823,0.12648122179341664,0.5463415274705522,0.656952450020275,0.1505398475301616,-0.32519773653292045,0.3735262566426335,0.0697573141426544,0.2794998933862145,-0.15193301023349148,-0.021403592097511807,0.1009879128818236,-0.06573095150342707,0.11524553115531799,-0.006888757304238143,0.03732545325608663,-0.246507406484348,-0.10146023640853762,0.2240111960948429,-0.049264947910621436,-0.17296851045972608,0.07937143760446148,0.1597572939820026,0.24757171554180482,0.1947181336581707,0.3652754749621281,-0.24102881555440822,-0.2482844654396512,-0.1805029684778518,-0.1087886876367733,0.17769192230669786,0.19633393360792525,-0.47602009402907963,0.07573232033974252,0.4907878475440243,0.5643464151684325,-0.29367580968911855,0.20558606482243233,-0.35542478966749597,-0.02536467435605872,-0.06377636998732021,-0.42304947233835594,0.10418765917697567,0.5115495229195759,0.1824473442381752,-0.3412037398875333,0.23158811360033668,0.5118161077779415,-0.2128843359758258,0.2512975331849796,-0.2501068137788389,-0.16188062191940844,0.21314957931948206,-0.020446820661873477,-0.04056752889052144,0.16322372468017998,-0.1414890308699049,0.11331471067824718,-0.17727057225265566,-0.32734516101517885,-0.5929290728789542,0.5524149399037823,-0.6839062100270232,-0.26253871505162263,-0.0700982554998146,-0.12324034150281316,0.2501635194054008,-0.33648579102809595,0.11621225888725115,-0.12179173352566071,-0.7078505922763976,0.24063684045259592,-0.11709466975061969,0.11687134260500763,0.37043285107234364,0.14415421965858904,-0.05124329760784163,-0.07482325123118772,-0.3613441804907367,-0.3354093085908702,-0.42127129443300265,0.3311454321568211,-0.3402354585720101,0.07095690051841522,-0.24345667442842683,-0.3979311458644659,-0.4621779175327058,-0.07883416312962496,-0.15170106825244317,-0.3893703562895345,-0.14064465047889294,-0.3767851492197174,-0.20802056723968393,-0.08965048595302678,-0.5400108138980791,-0.4688565297762018,-0.09956659253718989,0.15644945503924096,0.2779753487499708,-0.19180768492781253,0.5760796562912394,0.36159515287851235,0.05083109963628345,0.6994955734256856,0.4143446675046034,-0.2339191172910557,0.026926168957392246,-0.18356898390362117,0.4189225228813787,0.037732897947231926,0.1621080874039186,-0.18308290090220614,-0.36305757359677193,-0.3174687135880618,-0.33290028151704826,-0.014119551124360277,0.008192659575882328,-0.5078286810163049,0.274784732749189,-0.245471496634713,-0.08112207993663051,0.253786484160569,-0.2828306375915731,-0.12270483029272776,-0.498001736738669,0.0643821673147124,0.19589973390269336,0.09240531885380587,-0.6759417891593954,-0.30614632453323176,0.2019479977045903,0.11715216472339111,-0.25235415696224955,-0.24272461010856053,0.260914039149147,-0.056543871375001935,0.014057226168612639,-0.02819311199709773,0.05846261798509772,0.09084863960982664,0.16423027516367372,-0.24734255450585813,-0.1993301568122756,-0.3363561663960078,-0.6473542538428855,-0.6685747253179096,-0.7217232904508343,-0.5222508460826856,-0.7801435533035471,-0.28687590248467565,-0.31607823272976704,-0.3276467324527904,-0.20520198525530428,-0.5812770717159342,-0.13905952375125347,0.3704888690550798,-0.044548172521075305,-0.05375615861757321,-0.029123030456129576,-0.6264483813600868,-0.5800525092915341,-0.10892370571001403,0.47260783553170327,0.08259307645045252,0.008763891722386083,0.14721963942671815,-0.2064424594062074,0.18297303503925802,-0.00694479380443215,-0.029845926556994362,-0.020438246648807078,0.2774608370568016,-0.4651003898670352,-0.37542669111194044,-0.40489443296980543,-0.5781898819413249,0.10046309488620575,0.048223994336482584,-0.06435588657040718,0.40161970611124237,-0.14614743497420438,-0.309268472361002,0.002467152597296495,-0.4817525123091318,-0.4006004797538807,-0.4133374995490725,-0.010761846533415184,-0.681252336702558,0.09609485468539467,-0.028714280206043663,0.36139774089965976,0.2865648660036771,0.07903666025958955,-0.00024962378665804863,0.0747947566154207,0.19191148068108485,-0.16759396863725526,0.10693706510531686,0.24486142789947374,0.522053486871237,0.16698911715791004,0.31443554004636887,-0.004680313602779037,-0.05877610809312688,0.11522156722772783,-0.22886439139569906,-0.25488325791232314,-0.12466261032924539,-0.41682410514896995,0.07168002224469135,-0.10882469583680714,-0.2749486345779671,0.06174465671702833,-0.3212402393016498,-0.5342251720905744,-0.020357803917190487,-0.2541000890751659,-0.11371340250627046,-0.09857575745649659,0.08093648434927066,0.5176311854738742,0.32173475180752575,-0.000988626230664036,0.24063478941683591,0.1386979100994033,0.029870369941942844,0.302083221023878,-0.530063292742652,0.34692063658171146,-0.0474140385747541,-0.2346602292067738,-0.10154416790741776,0.10261005394507097,-0.6432998178263928,0.19260811763525298,0.670661570145103,-0.05208654492299752,-0.13594604920645476,-0.866081471893954,-0.782868855756761,-0.7006983310276893,-0.004706571403982738,0.12446793977483667,-0.5956164167791491,-0.14763160641815312,0.5795851035496019,-0.3154443707023994,-0.35824933492889005,0.14071149417820075,0.1317989508000513,0.13492060306974094,0.010354433832000439,0.09675939721978286,0.12007172066472466,0.34832840240523216,-0.31074836394544875,-0.19999534562297927,-0.27583608428413886,-0.04013847573252762,0.06290624638150083,0.20393838043822674,-0.10235229383342274,0.11042748663911538,-0.3114317738221491,0.05480491817024714,0.17081633935455237,0.014109700272306226,0.06382501362838314,-0.2884310024865123,0.12725261335883867,-0.3099256383203153,-0.09928600442362628,0.02720697257845161,0.15028471322823625,0.04965970783471348,0.2803020227390031,-0.36094435684693355,-0.23652277297029892,0.03183164688780718,-0.27973307752338483,0.372381388179075,0.389306817426979,-0.1296013978112297,0.044026397846287625,0.19355839567774044,0.4110504687273686,0.4056461323787046,1.0793724066808972,0.49930713120906767,-0.11696732956451768,0.38229319589482225,0.33499108039841496,0.1953022059982938,0.524157793928152,0.5944842211868824,0.020280097203718706,-0.05532767715166334,-0.014575796632898298,-0.2183506580956307,-0.0468676380459013,0.07308185941510892,-0.30186763017498364,-0.01928475158322568,0.13979906627597907,-0.22816781024448574,-0.4109912524775912,-0.45646567246876657,0.31612270567118816,-0.6233869258173224,0.13665847643195328,-0.004141082022613294,0.20419358143403238,-0.4783121326766162,0.03151462989776033,-0.07446668838551679,0.18270501495924418,-0.04371596074055915,0.4226275515955194,0.45919694267210465,0.6234912403283747,0.22457012479508945,-0.3337786819724082,-0.06071119229141652,0.021521472420941497,-0.1442465931188923,0.2969506049470293,0.11048890208612697,-0.3057587307303074,-0.21425669275347686,0.04192202639145156,-0.14321545721031725,-0.053577585611492395,-0.18957879363248745,-0.0335410803090781,0.3121406021527946,-0.271779578014965,-0.22875704048283832,0.19303559439566895,0.11866981690977615,0.12270082861350544,0.28803544024110483,0.1569698635916712,0.19634965654360823,-0.5299374178434156,-0.31056377229770843,-0.12586757224561854,0.35001810500351926,0.2450907911083776,0.08824633644076575,-0.4769242513546183,-0.10479082947747102,0.5008083759192168,-0.32184124735584985,-0.8057283538879136,0.03604617851998545,0.13509258434958551,0.24159820811126223,0.3150447803394248,-0.08995946853732069,0.21171772037632763,-0.05788790318183601,-0.30934574439500767,-0.1263589363079518,-0.008051516951664677,0.28186551151857087,-0.2552362002519996,-0.5749234484242934,-0.12862785512649158,-0.05654007380615607,0.055276089656055044,-0.32195873174635414,-0.050644865442410814,-0.025290779177198117,0.11035488756114646,-0.11923690490101567,-0.08291025839100423,0.13788727075545473,-0.24595095297948202,-0.27670228850749923,0.028248490610859472,0.3124408115812837,-0.12739051255440675,-0.1920982231178876,0.006611943583372733,0.05571224718975524,-0.2803580289085706,-0.26306545548141,0.2341561100911349,0.19677073073883852,-0.312665221048519,-0.2828620246145874,0.14811411034315825,0.16891833255067468,-0.08919841762687124,0.28654496704121374,0.19596973162754408,0.22283940743970462,0.18672653144635348,0.11946695557330869,-0.0564865766741666,-0.25267094033432336,0.17659577208773727,0.22649908205419383,-0.10048789189783758,-0.40905696124271146,-0.2324693931781577,0.29132457159398095,0.32198428473618074,0.28879045797667624,-0.23408407281246893,0.12249378399115336,-0.26832283443460864,-0.26751493592746556,0.13953676586970687,-0.5884784294757992,-0.1791758694065114]},{"bias":0.2696498922551376,"weights":[-0.14642942906357348,0.057660453099136554,-0.02468545944429934,0.18197188898921013,-0.6127179369019965,-0.2311317576871564,-0.4183960361406207,-0.18715487412797907,0.09402163249130051,-0.435050702188164,0.2883295367937535,0.32156888395547867,-0.12048621126450598,-0.12691876416405043,0.17103946891923746,0.2340050934193035,-0.12769703683443367,0.061616313022871814,0.11845646658912301,-0.27080307287784916,0.2439479446814706,0.37765366964352626,-0.23406883530939618,0.124476547120139,-0.15636293411565325,-0.4454829387832433,0.5569223541921625,0.2332875190768391,0.30222925132450956,-0.1745545637483398,-0.12865555503716072,0.24682341562584043,0.10654806081826489,0.4238618953774373,-0.2770721062552184,-0.32991249571176545,0.12502827868114086,-0.6019425867675487,-0.3443206067750112,0.2528237348623764,-0.04573504755940127,-0.30028943934232255,-0.1725571710765019,0.07003322334746546,-0.26931191479549943,-0.03472681119137688,0.06655628178481186,0.11239747301254215,-0.07830417184225086,0.1057880683048986,0.27255288512840464,-0.12484963579724233,0.020371198498954374,-0.1417809382546693,0.4185577594519903,0.1120134589727968,-0.0234164756257087,-0.2202924043716242,0.05106344438778857,0.051921085842574634,0.13865575481670178,-0.07612357765663626,0.46758735043265015,-0.11623119907431423,0.3936926202373471,0.3995760433463782,0.05170920814277985,0.04766720938808263,0.1332501134734636,0.4072867789670838,0.13879649432702357,0.38547398270836447,0.2729053901511043,-0.38216537221034175,0.2079722051399106,0.11656455978974001,0.015108371531134741,0.1574126845590764,-0.14008467761488633,0.22427651813479282,0.24847774157643998,0.09945127717219293,-0.15490027835282186,-0.019747485872358084,0.2733007258114715,0.0004057041369378567,-0.08287097847399612,-0.03428220725618303,0.00663457628376824,0.5316275316514032,-0.33493235589361764,-0.23686623182975708,-0.37596854599414287,0.2868532313828978,0.3128838741929259,0.10217947171247818,0.05957580559138821,-0.1251573284612683,-0.3048824397152752,-0.19095401650201677,-0.05268135336470711,0.2784510217953397,-0.24972842735501963,0.45400102340842863,0.21013265857480734,-0.011734644548265522,-0.07778911582294853,-0.1847173001237075,-0.22446645633197113,-0.12374692084267735,0.11448642161364357,-0.18073631116809943,-0.1982075006235391,0.29649004293605685,0.2221951250297328,-0.08343825358160878,-0.10589892605336183,-0.11435865843972443,0.17272479128359003,0.0604589508910064,0.008143597438065264,0.025963123154284798,-0.0408527678666585,0.20906907572460823,-0.7189260885052173,0.24758749656468546,0.012992210851386935,0.05848985929163243,-0.20995246712234217,-0.11814276561960167,-0.41526505166849176,0.008433899989312306,0.49487754250491567,0.07678194215555931,0.23471146934616033,-0.13632870053610543,-0.17016189272029295,0.12001616667969907,-0.3335061878121148,0.07255667207452159,-0.0056551053033520775,0.18079241698918244,0.3493981385085905,-0.3126954209097711,0.2990161949333707,-0.18668537595688997,0.20353177185923615,0.4738478656935714,0.154869200237316,0.08275039588124458,0.49324932821483813,0.31204038927847616,-0.40890942045411954,-0.7031600442502419,0.6856785097404029,0.15001377530120613,-0.11319678470079479,0.36363108975820235,0.45087218717457334,-0.2788188248138039,0.6370423028870702,0.024679890984112562,-0.2858048547765568,-0.2648693691763145,0.05003983847254876,0.07181962006853676,-0.34891215514841023,0.18426869027595907,-0.40327693956593674,-0.42832076371026534,0.07411863516948487,0.014657366551681105,0.29358776887114624,0.17067670494181997,0.11949279846862251,0.20257256367478088,0.26629308530476437,-0.39269705187942555,-0.4873105345449105,0.5612803664631949,0.23305104971201832,-0.23404962373743182,-0.7285866177332387,-0.5358847527952059,-0.7674081343013802,-0.6233708531102418,-0.7765289884897575,-0.16012453254665854,-0.29984402633386,0.0051651815745723875,0.5389169741386749,-0.025942180476749926,-0.04775497803824393,0.1403163397804077,-0.2663366206833258,-0.07180861918557854,-0.3557279599375444,0.17748843330441375,-0.06226875745746643,0.24362780185309554,-0.14329816553947552,0.22014126847857024,-0.07357159285759328,-0.7152558380603152,-0.20685435211316464,0.2154781106355188,-0.0932244424094387,0.0064562363564624695,-0.8252775345659035,-1.1221382351851548,-0.6407824607829238,-0.5276785356946102,-0.7658113630856846,-0.6470048493094263,-0.6083844824097574,-0.14284851192740303,-0.13267702484926164,-0.06264862759463026,0.1039357866358049,0.17921063994521208,0.26740421371365924,0.14125747419883933,0.2475666224715349,0.2691008032979091,0.4396925412316454,0.07268327171178408,-0.45883154723944847,-0.20226999055259626,-0.23966949613314042,0.07665645854385482,-0.15794278625362343,-0.6062869646353001,-0.6571713941930168,-0.30369287671457224,-0.10726753775039613,-0.33166553761563716,-0.6645122922007531,-0.39255832484998454,-0.3749320559172197,-0.6998940954819656,-0.14520840645249605,